</s> 0.004003 0.004419 -0.003830 -0.003278 0.001367 0.003021 0.000941 0.000211 -0.003604 0.002218 -0.004356 0.001250 -0.000751 -0.000957 -0.003316 -0.001882 0.002579 0.003025 0.002969 0.001597 0.001545 -0.003803 -0.004096 0.004970 0.003801 0.003090 -0.000604 0.004016 -0.000495 0.000735 -0.000149 -0.002983 0.001312 -0.001337 -0.003825 0.004754 0.004379 -0.001095 -0.000226 0.000509 -0.003638 -0.004007 0.004555 0.000063 -0.002582 -0.003042 -0.003076 0.001697 0.000201 0.001331 -0.004214 -0.003808 -0.000130 0.001144 0.002550 -0.003170 0.004080 0.000927 0.001120 -0.000608 0.002986 -0.002288 -0.002097 0.002158 -0.000753 0.001031 0.001805 -0.004089 -0.001983 0.002914 0.004232 0.003932 -0.003047 -0.002108 -0.000909 0.002001 -0.003788 0.002998 0.002788 -0.001599 -0.001552 -0.002238 0.004229 0.003912 -0.001180 0.004215 0.004820 0.001815 0.004983 -0.003111 -0.001532 -0.002107 -0.002907 0.002815 0.001579 0.000425 -0.002194 0.001524 0.003059 0.000194 
c 0.585903 0.402407 0.251667 0.530408 1.599915 -0.185072 -0.214880 0.371274 -0.522496 -0.332453 0.362236 0.406159 -0.568907 -0.550391 -0.274007 0.186709 -1.917676 -0.203734 -0.003072 0.279224 -0.816404 -0.347755 -0.056608 2.240826 0.284338 -0.852650 -0.559349 -0.082315 1.017844 -0.055419 0.946265 0.990252 -0.149394 0.091100 0.032993 -0.710175 0.522675 -0.173880 0.731112 -0.793410 -0.210337 0.045816 -0.052395 0.441839 -0.944680 0.515111 -0.267440 0.626047 -1.256849 -1.040785 -0.745774 0.594166 -0.005308 -1.157006 -0.199084 -1.049707 0.835226 0.144990 0.887630 0.668803 1.495842 0.694290 0.515757 -0.331990 0.476229 0.516011 0.928552 0.457776 -1.010744 0.012307 0.360525 -1.622887 -1.403602 0.798019 -1.117030 0.732893 -0.141813 0.792539 -0.226503 0.836856 -0.288854 0.286971 -0.076716 1.862626 1.461190 0.047792 -0.916228 1.153368 1.731917 0.739369 0.965170 -0.086054 -0.583690 -0.690534 -0.691290 0.471956 -0.748445 -0.325208 -1.539925 0.031889 
C -1.169451 -0.202803 -0.660543 -0.105148 -3.133206 0.758095 0.312021 -0.228348 0.256338 -0.053413 -0.444085 -1.081915 -0.069894 1.595812 -0.081477 -0.945176 2.076214 0.309736 -0.221535 -0.449624 0.893362 0.254526 0.042194 -2.381374 1.616198 0.912682 0.317094 -0.122919 -0.856842 0.008198 -1.636748 -0.245600 -1.259330 1.230000 0.212837 0.618275 -0.262898 0.282895 -0.778964 1.053552 0.624868 -0.271271 -0.233654 -1.164716 0.349929 -1.185830 -0.140865 -0.158966 1.435304 1.888612 -0.679013 0.833836 0.079330 1.048422 -0.418477 0.780292 -0.484328 -0.736422 -0.858252 0.154817 -1.529123 -0.780150 0.574998 0.099425 -0.865643 -1.295379 -0.404071 -0.657876 0.892637 -1.720290 -0.520319 2.332146 1.060630 -1.716729 1.379272 -0.716433 1.218889 -0.934712 -0.309180 -1.083954 0.698665 -0.831925 0.166776 -1.812919 -1.435844 -0.026727 1.021957 -0.203978 -0.351885 0.811935 -1.401821 0.262838 0.397943 2.684886 0.151701 0.687663 -0.180869 0.890170 0.162014 0.252571 
( -1.095788 0.746167 1.072555 -0.346512 -0.416924 1.214904 -0.227135 0.645304 0.665067 0.706988 0.158535 -0.651133 -0.509303 0.565285 -0.421172 0.609877 0.627533 -0.413351 0.417329 0.049350 0.331888 0.438424 0.335113 -1.065050 0.853788 -0.436427 0.436054 0.247588 -0.502062 0.093458 -0.755024 0.338709 -1.040639 0.288495 -0.737043 -0.582993 -0.289542 -0.278080 -0.643432 0.561516 -0.451351 -0.632115 -0.560744 -1.883549 -0.436560 -0.405798 -0.748914 0.282798 0.735420 1.272557 0.518224 0.457650 -0.106057 1.413278 0.494607 0.338502 -0.629436 -0.812589 0.012997 -0.558119 -0.259156 0.332680 0.715083 0.561764 0.090308 -0.573538 -0.272176 -0.603322 0.053001 0.374087 -1.261499 0.948665 -0.062533 -1.183753 -0.041676 -0.850503 0.644579 -0.169623 0.407049 -0.218340 0.304917 0.388777 -0.454450 -0.178289 -1.391978 -0.349394 1.011248 -0.351753 -0.170913 0.223804 0.241025 0.437680 0.304474 1.076002 1.063277 -0.443384 0.067442 0.263400 -0.718641 -0.615915 
) -1.601976 -0.433033 -0.058424 0.026449 -1.284793 0.671516 -0.381660 -0.010817 -0.170856 0.535236 -0.369066 -0.910034 -0.009146 1.752379 -0.711862 -0.236203 0.498074 0.294223 0.774796 0.280669 0.051108 0.137808 -0.264435 0.178387 0.513994 0.649122 -0.009691 0.493581 -0.719792 -0.127260 -1.618084 0.380488 -0.570768 0.690684 0.394063 -0.181599 0.161318 0.049832 0.175231 -0.252852 0.489709 0.339282 -0.098981 -0.335401 0.996839 -0.650713 -0.184690 -0.398138 0.015158 0.580480 0.123981 -0.491303 0.021900 0.132985 -0.000830 -0.055245 -0.027166 -0.598447 0.191285 -0.207462 -0.347333 0.192801 -0.394525 0.445203 0.468245 -1.253253 0.238049 -0.258909 0.399911 0.275234 -0.721017 -0.296393 0.117734 -1.358663 -0.854984 -0.652137 0.990327 0.722683 0.096355 -0.408123 0.968799 -0.126293 0.422570 -0.311656 -0.709365 -1.519283 -0.010042 -0.810737 -0.506231 0.009983 -0.882887 0.026724 -0.299478 1.919093 0.184977 -0.451050 -1.428759 0.571220 1.429484 -0.026870 
O -0.805955 0.134092 -0.509316 0.096820 -1.991771 0.162492 -0.468511 0.306349 -0.578091 -1.099398 -0.218367 -0.589809 -0.089323 1.469959 0.880047 -0.281745 -0.295894 -0.256209 1.277008 -0.540028 1.042138 0.487984 -0.032375 -1.899158 1.010198 0.319674 0.979740 0.729167 -1.336327 -0.661244 0.218571 -0.013755 -0.966593 1.465801 1.170015 -0.836244 0.163625 -0.158408 0.131911 0.949358 0.677773 -0.302027 -0.823883 0.561292 0.297930 -0.154932 0.221465 0.433477 0.864933 0.668722 -0.129941 0.470275 -0.231346 1.059946 -0.098866 0.956540 -0.359768 -1.043236 -0.743750 0.840281 -0.562015 0.264566 0.784070 0.318001 -0.439633 -0.974190 0.373119 -0.059199 0.573475 -1.041455 -0.654226 1.987447 0.729743 -1.519487 -0.937679 -0.285037 0.436219 -0.567471 -0.067160 -0.695885 1.103280 -0.378110 0.945893 -0.843908 -0.575775 -0.722020 0.813861 0.677476 -0.018231 -0.289631 -0.033465 -0.202270 -0.103230 0.919431 -0.083156 1.746608 -0.001310 0.453987 0.368284 0.210636 
= 0.514626 -0.970114 1.175636 -0.004587 -2.089837 0.020223 -0.085818 -1.374782 0.550721 -0.238316 0.348279 0.022335 -0.811216 0.759292 0.297750 0.200444 1.551201 0.437662 -1.372782 0.134341 -0.355173 1.038509 -0.253396 -1.019389 0.447691 -0.020368 0.171568 -0.173436 0.004143 -0.147624 -1.327054 0.419196 -0.525897 0.748830 -0.169009 0.140241 0.450733 0.827552 -0.052494 0.923243 0.634265 -0.498089 0.899168 -0.755435 -0.151733 -0.414818 0.645685 -0.574048 0.601995 0.269501 0.561377 0.909822 0.726224 -0.158933 -0.032277 0.310044 0.074858 0.268797 -0.078121 -0.025556 -0.808644 -0.427959 0.907424 -0.024254 -1.233512 0.013597 -0.233727 -0.135214 -0.038940 -0.391172 0.930032 1.342644 -0.439341 -0.927221 1.461836 -0.096270 1.720240 0.466161 -0.874370 -0.722396 -0.071060 0.046243 -0.390276 -0.272503 -0.043579 -0.483798 0.656492 -1.142711 0.279388 1.573073 -1.148714 0.380291 1.527282 0.677470 1.200016 0.875141 0.874304 -0.271260 -0.045573 1.171121 
N 1.374214 -0.551724 0.366009 -0.473274 0.238984 -1.298447 -0.337813 -0.941504 -0.611133 -1.006452 1.258687 1.000682 -0.300960 0.648811 -0.348732 -0.278309 1.106145 -0.780926 -1.142811 0.497662 -0.581106 1.594783 1.406777 0.550494 0.626607 0.862861 -1.376060 0.266587 0.826521 0.103097 -0.347497 -0.572947 0.132338 0.961800 -0.350535 -0.595612 -0.398974 -0.366150 0.767226 0.762378 1.159060 0.098613 1.167275 -1.101506 0.349618 -0.538556 -0.253360 -0.254271 -0.001562 0.922392 -1.512637 -0.521823 0.282803 -0.011427 -0.512442 -1.970849 -0.701837 0.010017 0.630550 0.305878 -0.517796 -0.492266 -0.348263 0.205890 -0.334253 -0.325374 -0.593363 0.037634 -1.194187 -0.088379 0.339921 0.977508 -0.483487 0.576853 0.682116 -0.399833 -0.167237 0.253303 -0.397678 -0.245008 -1.111076 -0.457183 0.241272 -0.635110 -0.053311 0.372620 -0.850016 -0.548994 0.605435 -0.223309 0.316962 0.299963 -0.978434 -0.718674 0.579534 1.140494 1.101077 0.318645 0.219459 -0.281883 
[ -4.814192 2.432625 1.067255 0.971438 1.061493 0.648583 -2.204103 1.139677 -0.282748 -1.577558 -1.859879 -1.139323 -0.065331 3.899808 -4.380156 -2.550299 -0.477108 -1.256734 1.460741 2.651557 -0.242303 4.410952 0.669020 -0.884271 4.710239 -1.790385 -1.085686 1.617978 1.360163 -0.861682 -1.747630 1.218566 -3.577279 2.894815 0.117170 -2.580764 -1.634498 -1.691803 -0.148133 0.206397 1.701452 -0.190380 -0.971925 -4.808524 1.292833 -1.091173 0.438673 1.695925 2.719256 1.960248 1.297744 4.645760 -0.915629 -0.224905 2.479664 -0.468098 0.580243 -1.105181 -0.093072 -1.240999 -0.067893 0.711026 0.861002 -1.730419 0.961539 -1.507484 -0.376964 3.347634 0.843389 -1.457335 -1.136136 -0.502208 1.758588 -2.372216 -0.833619 -0.516994 1.331151 -0.683585 1.087264 -0.012114 0.513072 0.602536 1.101343 -0.128219 -1.617501 -0.833308 -0.438065 0.690990 -0.125854 3.033983 -0.740621 -2.607544 -2.360815 5.858494 0.811679 -0.044012 -4.334683 2.325558 0.563600 -3.239900 
] -2.942135 -0.175465 -0.866005 -0.519202 0.524900 0.600333 0.120854 2.924975 -1.056456 -0.102804 1.148645 -0.151622 -1.921087 2.525721 -3.602114 -0.931410 -1.730037 -1.154971 2.724105 -0.081374 0.613930 2.671887 3.313455 1.665376 4.604934 -0.658087 -2.184432 2.081279 -1.343232 -1.342184 -1.746163 0.452502 -2.974732 3.224500 -0.003795 -3.252168 0.681136 -0.726354 0.147962 -0.735519 -0.742962 0.249033 -2.058314 -2.168062 -0.083412 -2.652696 0.351011 -1.092470 -0.332558 4.517113 -0.369739 3.355304 -0.421334 1.659425 0.568537 1.450197 -0.326560 -2.953195 0.107209 0.091500 2.040102 0.027122 1.726852 -2.170868 -1.531289 -1.869666 -0.887588 0.899139 0.580679 -1.365011 -3.817249 -0.184062 -0.959066 -0.601094 -0.033110 -2.715536 3.481850 -2.090506 -1.347188 -3.317671 4.265150 -0.170812 -0.152746 0.391134 -1.107658 -0.920716 -0.124016 -0.413768 -0.272645 0.939886 0.210061 -2.276491 0.339763 4.469604 4.503359 1.432667 -6.036379 1.640848 -2.736634 -2.576493 
n 0.069017 1.522220 0.806384 -0.362484 3.234908 0.793129 0.081163 1.430444 -0.797800 0.097761 -0.502381 1.126639 -1.064328 -1.246239 -1.092923 0.719300 -3.054723 -0.042001 1.597123 0.653623 -2.069903 0.940893 0.319240 4.843638 -0.488028 -1.178169 -1.670687 0.692934 1.825858 -0.077087 0.700252 0.379795 -0.476115 -0.835270 -0.014975 -0.804706 -0.250709 -1.514973 0.807246 -1.178679 -0.531349 1.479392 0.101490 -0.290851 -0.533479 0.246055 -0.770933 0.900728 -1.611560 -1.946547 0.096229 1.244620 -1.124433 -2.460901 -0.293881 -0.460433 2.897010 0.593161 1.241690 -1.130330 2.927854 1.146077 0.241732 -1.222749 1.113820 -0.050325 0.534638 -0.158035 0.387521 0.941146 0.647749 -1.961301 -1.329181 1.811722 -0.594834 -0.006512 -0.693126 0.897574 -0.154249 1.153482 -0.307690 0.125104 -0.176368 1.961055 1.620965 -0.396376 -2.309237 1.598928 0.914435 1.145302 2.297677 -1.039373 0.328743 -0.694273 -0.501847 0.577638 -2.101533 0.004733 -2.112189 -0.692356 
H -4.338840 0.826757 -2.965679 0.784949 0.052664 2.873519 1.331882 1.702041 2.585447 2.205234 -2.738495 -4.605668 0.465358 -1.217703 -2.047042 -2.321038 1.040577 -0.494775 0.617593 -0.266794 0.637363 0.114089 -1.182353 0.733945 1.533159 0.685321 -0.709405 -1.658086 -1.182160 -0.523666 -3.707387 -2.373283 -2.521569 0.819971 1.132043 -0.264262 1.742869 0.532819 -1.921440 0.557972 0.827538 0.915683 -1.318562 0.065103 0.497800 -2.678478 -0.970609 0.532624 2.949574 1.768010 -2.283638 3.438200 -1.702481 -0.142461 1.602459 1.931644 -1.259492 -2.080169 -2.522951 -0.729744 -0.415664 0.933417 -0.649313 0.244898 2.902316 -2.887944 0.336565 -0.391420 4.255155 -3.004979 -1.962225 0.165235 -1.323013 1.601682 0.975984 -1.775450 -0.803761 -0.611907 -0.094432 -1.393477 1.571182 -0.832885 0.758408 -1.537268 -0.632192 -0.269018 2.791954 1.204313 0.821068 3.613492 -0.698380 -0.521121 2.054048 6.429976 1.126155 -0.244566 -4.016985 -0.085508 -5.050486 -5.063971 
/ 2.993701 1.006688 -0.265868 0.496653 0.955285 -1.549403 1.071296 -2.432256 2.086839 -1.520258 3.332282 2.742096 -1.465618 -0.051630 0.514022 -0.259800 3.041287 0.978090 -3.300984 0.752134 -2.135250 -1.527393 1.321359 0.207952 0.634916 1.562983 0.427883 -0.039618 1.026339 1.480981 -1.034344 0.173912 1.353678 1.124101 -3.457201 0.404135 0.640733 0.062535 -1.293796 -0.773274 0.092579 1.227948 2.199466 -2.976624 0.033994 -1.541847 -1.026412 -0.458236 -1.165050 1.642764 -2.893214 -1.850146 2.432222 -0.311763 -0.588064 -3.339649 -0.088862 1.850240 2.383689 2.528823 -1.980760 -2.957766 -0.181334 0.601069 -0.522690 0.955084 -1.011872 -1.529083 -5.043034 -0.764332 1.313074 -0.448266 -0.022191 0.473860 2.677325 -0.542879 -1.292379 1.007580 0.282917 0.430565 -2.583247 -1.694440 -0.587640 -0.566474 1.393240 1.007739 -0.688453 0.286754 0.225181 1.253933 -1.891437 3.552508 0.621844 -0.934486 -0.609156 0.025114 3.564074 0.049615 -0.099671 1.396242 
- 1.860110 -2.464909 1.941042 0.156322 5.305854 -2.234083 -2.518936 -2.240711 -1.675007 0.107911 0.790088 2.608386 1.669554 -2.000869 -1.846015 -1.488502 -2.138847 -2.474903 1.028730 1.902151 -2.724529 3.668398 1.624025 4.451564 1.185738 -3.338297 -1.382093 0.846951 0.603048 -1.694656 1.362004 0.265255 -0.929296 1.828897 -0.620929 -1.962010 1.102156 -1.001660 1.091778 -1.136736 0.887515 1.314405 0.379960 1.398357 0.748575 2.390664 0.079582 1.153177 -0.186973 -0.695211 0.848061 1.822864 -0.678791 -2.838086 0.745311 -0.301290 0.406755 0.002431 0.386247 -1.530606 2.914071 0.982201 -0.597043 -2.866667 0.725253 -0.167318 -1.663752 3.454695 -2.549303 1.948587 0.689719 -2.356416 -1.724232 2.396633 -3.316639 -0.124087 -1.143055 1.537627 0.262849 1.423955 0.393637 2.207184 1.661236 1.427352 1.794457 -0.619007 -0.787399 1.776844 1.745579 -0.125775 2.738695 -1.310599 -2.223521 -1.936395 1.632824 2.687135 -2.289603 -1.215572 -0.712690 -2.244002 
S -0.359490 -0.371644 -0.153036 -0.997958 0.773784 -2.096413 -0.165416 -1.218981 -0.780121 -0.807586 0.700938 1.659413 -1.249777 0.440527 0.783109 1.826596 0.486836 0.018987 0.749902 0.914197 -0.539132 1.197056 -0.637570 1.873416 -1.757212 1.989827 -0.457256 0.993530 -0.239610 1.288673 1.735873 -0.130805 0.654840 -0.990260 0.092906 0.739429 -1.837389 -0.377643 0.751873 1.568983 -0.114753 0.232875 0.789941 -0.503338 0.618881 0.622093 0.684564 0.116772 -0.900349 -1.065479 0.016400 -1.776853 0.636806 0.148244 -1.951397 -0.450437 -0.056130 1.153476 -0.525765 -0.995411 -0.057129 -0.052162 -1.282505 0.695173 1.084460 0.774663 0.364721 -2.022126 0.273447 -0.262921 1.812830 0.383401 -0.372199 2.028465 0.460521 -0.125956 -1.606064 0.387727 0.323638 0.381038 -2.410499 -0.984322 -0.854728 0.012671 -0.291770 1.659418 -1.704696 0.088721 -0.213902 -1.131853 0.142144 -0.550102 0.706401 -0.976505 0.660707 -0.316699 2.551644 -0.410267 -0.951468 0.827067 
Cl -0.647831 -0.765590 0.796281 1.780228 3.600059 0.564953 -2.156538 -0.488829 -0.354484 -0.892178 0.657548 1.536909 -0.965641 -2.765344 -0.489269 -0.029372 -0.612875 0.694750 -1.909247 -1.573425 -1.403556 -1.640460 -0.503196 0.499736 -0.924307 0.234427 -1.149834 0.929499 1.620217 0.266497 -0.837027 1.623218 -0.665803 -1.032612 -0.177547 0.501966 -0.510396 1.213080 2.034453 1.386254 0.220038 -1.745063 2.601615 0.547745 -1.269669 3.046541 -0.946736 1.476632 -4.026409 -2.243039 -2.198875 -3.194097 -0.434686 -1.590047 -0.824017 0.187992 1.584556 1.200679 1.197057 0.109166 0.319744 0.487743 0.814321 1.304986 0.607598 -0.032621 -0.446872 0.814063 0.070838 -0.439624 -0.285734 -2.145165 -1.667814 -1.373009 -0.594851 -0.624057 1.187341 0.163216 -0.106078 0.478959 -2.847354 0.397633 -0.311804 0.506528 -0.241418 0.697585 -1.833954 -1.418851 2.173757 -0.691215 0.281273 0.952959 -2.472548 -1.011025 -0.783968 -0.011307 0.576487 -0.335016 -2.859828 -0.591297 
@@ -2.480309 1.672234 -1.085733 0.388471 -4.298482 2.996592 0.223325 -0.004975 3.712253 2.750512 -3.270517 -3.615171 0.873880 1.179926 -1.034480 -3.556800 2.264883 -1.368471 2.043558 -2.087451 0.739814 -1.326290 -1.109359 -4.628400 2.464353 0.867106 0.815244 2.910680 -3.736423 0.268211 -5.250112 -0.351265 -3.319819 3.661189 -0.255187 0.936568 0.516508 0.004632 -2.582814 2.376152 1.273271 3.526012 -1.002517 -0.358964 -0.449782 -2.836113 -2.327197 -1.128189 4.247232 4.359070 -0.912362 0.762099 -2.002393 0.726864 1.220129 2.981064 -1.209177 -2.887035 -1.560871 -1.232411 -1.073186 1.141655 0.734994 1.369568 0.198646 -2.704983 0.182422 -0.870289 3.934643 -2.611002 -1.749855 4.917341 0.075263 -2.493043 1.782883 -2.824602 1.942938 -1.932657 0.282123 -2.231431 4.598588 -1.234701 1.353613 -1.614642 -2.301601 -0.508627 3.145149 1.619868 0.111655 3.507035 -0.673996 1.078341 2.601058 6.759174 0.884163 -0.990885 -1.063240 1.166234 2.255591 -1.217721 
@ -3.396509 1.186828 -1.654050 0.301808 -4.767055 2.527497 0.263165 0.579254 3.776140 2.839114 -3.718200 -3.507205 0.893729 0.919079 -1.208946 -3.801500 2.298785 -0.975742 1.098045 -1.711200 0.812896 -0.603080 -1.068973 -4.799058 2.594631 1.234735 0.660992 2.912039 -3.982404 -0.251730 -5.918596 -0.646494 -3.299323 3.612969 0.094537 0.746214 0.187771 -0.519876 -2.805303 3.112488 1.408884 2.973964 -0.174523 -0.651931 -0.162512 -2.835464 -1.990575 -1.752159 4.391467 4.430739 -0.074699 0.789529 -2.093016 1.010446 1.296331 2.559577 -1.131109 -3.130657 -2.105000 -1.488332 -1.345312 0.859000 1.030106 1.378517 0.100141 -2.378541 -0.552440 -0.865842 4.111519 -2.679139 -1.740822 5.090949 0.337185 -2.530138 2.662984 -2.866164 2.415767 -2.194029 0.144464 -3.222196 4.413518 -1.074421 1.563030 -2.087521 -2.488120 -0.701317 3.560524 1.230190 -0.524230 3.316640 -0.540938 0.740412 2.834666 6.609361 0.589518 -0.727267 -0.937581 1.408013 2.448104 -1.252079 
F 1.364920 -1.046800 3.990549 -1.109874 -1.822744 4.446120 -2.662912 0.000125 -3.646250 2.228036 1.018508 -1.863626 1.671656 1.994382 0.953471 2.753181 0.328134 -1.680662 1.824375 0.103438 0.464161 -2.368359 -1.183026 1.988767 0.317026 -0.924362 1.857367 -1.522624 0.521903 2.287924 -1.543156 -1.763952 -1.138048 -3.097908 2.019016 1.909957 1.031602 -0.843882 0.033680 1.325780 0.016229 -0.565083 -1.854453 1.092870 -0.809684 1.188501 -3.812635 2.506149 -1.839284 -2.399263 -2.068441 0.980055 -2.468418 -0.923592 -2.169573 -1.689256 -0.134931 -1.832413 -0.043780 -0.789962 2.462957 2.472215 -0.326977 1.763475 0.124541 -1.840009 3.262671 -1.152967 0.698379 2.360881 0.020991 1.370900 -2.165895 -3.881772 -3.869802 1.938457 -0.913273 0.895716 0.338540 1.736307 0.665733 -0.624530 0.513628 0.283621 1.863950 -3.668581 -0.702273 -0.678111 0.339919 0.478521 0.683069 1.071029 -3.752633 -1.806269 0.529086 -1.359756 -0.770393 0.326137 -1.317951 4.098751 
+ 1.187360 1.867572 1.747488 0.599172 2.533782 1.079457 1.923668 -1.174591 3.980712 5.015095 -2.944986 -0.624006 2.346860 -6.110756 1.963796 -0.573046 -1.823964 -1.622146 0.765419 -1.153956 -4.033186 -0.293044 0.919984 6.217567 -4.807677 -1.384492 -2.769758 -0.077821 1.520468 -1.471152 0.407168 2.417612 2.657008 0.106446 0.607502 -1.635684 2.352180 -0.341200 0.101838 -1.864131 1.631168 2.843840 0.167317 2.833484 -0.834352 1.259398 -1.346552 -3.651289 0.441514 -1.301542 2.871557 -2.504305 -1.865224 -4.060825 1.967417 1.109690 1.107934 -0.909134 1.840580 -1.520861 1.268100 0.968553 -0.868905 1.559090 3.555035 -0.541076 -2.435213 -0.484694 -0.239719 4.026131 -0.434961 -0.100869 -2.450679 6.120692 -1.338398 -3.803013 0.176904 6.164328 -2.344840 3.527680 0.023404 1.611354 0.469486 3.510700 -0.915799 -2.040150 2.013557 3.921082 4.240720 -0.795990 5.231547 3.293339 5.553079 -1.559319 -0.860168 2.864542 2.261505 -3.283653 2.610409 -6.475183 
\ 1.820211 0.280306 -0.630004 1.436905 0.888853 -1.073017 -0.289493 -0.772506 1.818583 -1.700903 3.411744 2.304994 0.046808 -1.264788 -0.244341 0.356215 3.126473 0.122123 -3.030010 0.744882 -1.574009 -0.307030 0.944634 0.484567 1.248286 1.793370 0.664734 -0.320424 0.143841 1.037033 -0.959040 0.518287 1.468938 1.327510 -2.755625 0.071400 0.719125 0.131670 -0.982294 -1.412185 0.119566 0.505651 1.831952 -2.309697 0.015027 -1.535773 -0.794739 0.775616 0.335102 0.567648 -1.803854 -3.208511 1.730647 0.879190 -0.705521 -3.517567 -0.737328 0.455881 2.036066 0.950104 -2.985345 -2.307306 -0.171901 0.428169 -0.661003 1.399521 -1.581876 -1.587784 -4.819209 0.013032 1.153758 -0.241746 0.150223 1.689074 1.042721 0.018421 -1.646084 0.093148 1.226484 -0.712507 -2.248115 -2.258309 0.083937 -1.533566 1.857987 1.201496 -0.421149 -1.272004 0.178942 2.017145 -2.103893 2.039896 0.813259 -1.431087 0.324964 0.289454 2.158257 0.888416 -1.566107 0.672888 
s 1.019915 1.251345 -0.063522 0.024327 3.836703 0.365724 -0.525536 0.117792 0.177836 -0.735121 1.074515 1.557705 -2.111186 -2.028929 -0.366160 1.672068 -2.541344 0.927231 -0.018767 1.436642 -2.053682 0.200332 1.122590 2.636921 -0.446566 0.298099 0.418042 0.027748 1.882331 0.082058 0.353445 0.641959 -0.351952 -2.169110 -1.334063 0.623143 -0.852327 -2.126025 0.717246 -0.937030 -1.249824 2.311230 0.462702 0.036227 -1.273762 -0.317281 -1.022728 0.927040 -1.193645 -2.620798 -0.108299 -0.650592 0.970927 -2.534976 -0.211299 -0.478281 2.543459 1.646202 1.583913 0.350795 1.264217 0.666419 -0.481867 -0.761793 -0.289058 2.031148 1.611968 -1.331504 -0.702982 0.400867 2.966974 -1.165696 0.736484 1.625494 1.457131 0.523109 -0.140087 0.754683 0.399892 1.107385 -1.692758 0.658156 -1.804719 2.075783 2.397782 2.007094 -2.797370 1.913836 0.421897 1.628893 0.353672 -1.633666 0.817098 -1.594325 -1.033776 0.708740 -0.647573 -0.508888 -3.283455 1.310017 
# 0.875420 0.286482 -0.270503 -0.258426 -1.624345 -0.619908 2.704543 1.397160 -0.231545 0.889477 0.311659 -1.783117 -0.565733 -0.623509 -2.027498 -0.344898 1.596459 -0.799401 -4.086433 2.213026 -0.172437 1.992960 0.662353 2.224202 -0.452884 0.255197 -3.329056 -3.830625 1.968786 0.313451 -0.398175 -1.419874 0.666639 -0.677648 -0.112326 -0.702220 -0.456737 1.345178 0.932600 -1.645732 -1.006610 -1.933995 0.468430 -2.329062 0.030146 -1.575588 -0.753701 -1.972322 0.497307 -0.136646 -1.984054 1.336766 0.833475 0.709317 -0.681954 -3.109313 -0.865635 -0.088519 0.479044 0.879353 -0.028840 -1.634365 -1.383302 0.752022 0.051894 0.117582 0.746645 -1.102758 -0.023614 0.955644 0.263701 1.277075 -0.092263 2.009797 2.689533 -0.050904 -0.439413 0.704743 -0.559133 0.465625 -0.776452 -1.094044 -1.791835 -0.275100 -1.075849 0.658202 -2.449337 -2.975718 1.404025 -0.492674 1.009224 -0.298599 -1.297533 0.511733 -1.836909 -1.210813 -0.388476 0.610801 0.035460 -2.246279 
o 0.897507 1.592472 0.514674 0.057659 1.816011 1.035127 -0.246684 1.769837 -0.426524 -0.840887 0.028594 -0.112459 -0.106659 0.176320 0.106959 0.221184 -4.013755 -0.844700 0.122329 -1.335647 -0.206597 -1.753588 0.141957 1.748768 -0.388843 -1.666073 -0.558756 0.037196 2.151156 -0.566965 2.095858 0.588848 0.562328 0.380468 -0.637280 -0.839301 -0.330266 -0.269802 1.711363 -0.895792 -1.019583 -0.732876 0.907386 0.556844 -1.709776 0.500751 -0.275445 0.647056 -1.610298 -1.071044 -0.833447 0.254148 0.910064 -1.500131 0.285646 -1.130274 1.284810 0.341065 1.510473 1.848278 2.312474 0.870055 1.037754 1.352977 0.683498 0.499748 1.838990 0.128010 0.393393 -0.081534 0.194375 -1.462810 -1.043351 1.225816 -0.227970 2.587731 -0.671199 0.577974 -0.252923 0.840184 -1.437937 0.701490 -0.673260 2.366710 0.400021 0.126910 -0.628778 1.485723 0.320856 0.251929 0.817148 -1.398041 -0.314800 0.009454 -0.546910 0.960871 -0.427188 0.328011 -0.254850 0.539153 
Br 0.327658 0.200722 -0.057934 1.740860 0.739766 -0.997115 -0.516853 1.798471 3.982750 0.053579 0.618303 1.471633 0.026268 0.462167 1.324819 0.257579 -1.831716 2.049544 -1.554204 1.343659 0.959028 -0.096812 -0.839773 -0.617203 0.531272 1.960667 2.651554 1.339540 -0.639063 -0.425664 0.752379 -0.132610 0.499685 -0.861178 -0.110849 0.298911 0.434902 -0.922610 1.624409 -1.489449 0.811115 2.530738 1.404071 0.455687 -0.889757 2.537415 -2.655150 1.808974 -0.168632 -0.381228 -0.212809 -2.649477 0.804364 -1.236061 -0.497505 0.306378 0.585330 2.210482 -1.971679 -1.101922 -0.618101 0.153223 -1.549296 -1.778305 -0.546774 1.377686 -1.402579 -1.171193 0.831424 -0.848829 -0.299448 0.999171 0.512669 -1.610666 2.907067 1.879279 0.007306 -2.629388 0.363395 -0.441222 0.498346 1.340612 -1.001165 2.275840 1.980133 0.062774 -1.575107 1.450720 1.337349 0.594560 -2.485647 0.335450 -1.275017 -0.362220 -2.244042 1.502230 -1.845053 0.662232 -3.642690 -0.157401 
P -0.894389 -0.267714 0.195568 -0.920281 -1.092213 -2.234324 0.886945 -1.071513 -2.556787 -0.994106 -0.907685 1.893910 1.586791 1.458119 2.598944 0.922899 -0.039332 -1.355774 -0.299246 0.411636 -0.190032 0.739076 -0.800454 0.243339 0.470231 -1.488527 -0.677558 -0.272960 -0.495930 -0.560893 2.236331 -2.749193 -1.068336 0.989332 -0.096026 -0.546174 1.937426 0.514657 1.704234 -1.617550 1.926061 -0.953073 -0.342384 1.077977 3.278669 2.777153 1.028014 0.508967 0.017691 1.806239 -0.543565 1.227773 -2.467643 1.563994 0.131967 0.709148 0.733051 -0.168081 -0.602460 -0.633784 2.063258 0.716703 0.431293 -1.183991 -0.239108 -3.437318 -1.024801 0.463058 0.350477 1.698558 -1.332462 1.031190 -0.394598 -2.921832 -2.881225 0.035246 -0.748449 -0.607742 1.266464 0.834167 1.101263 0.258136 2.763340 -1.332962 -0.394544 -4.642838 1.941053 -3.211019 -0.645806 -2.553944 -0.988570 3.114974 -1.744680 -2.362230 0.135141 1.473729 -0.480920 -0.535740 1.553976 -0.524677 
. 1.657766 -1.269660 2.118650 -0.121012 2.887875 -1.116203 -4.513399 -0.392538 -0.138757 0.330257 1.642681 0.224529 1.606326 -0.150011 -0.994434 -0.038281 0.490499 -1.254727 1.184389 0.460709 -1.048322 1.846943 0.790397 0.552897 -2.575788 -0.433013 -0.847971 2.476697 -0.431807 -0.887189 -0.309270 0.503433 0.670009 0.299239 1.045730 -1.596485 0.026724 0.069546 -0.278398 1.373145 0.454732 -1.180223 0.554019 2.186278 1.268742 2.143151 0.838532 1.225735 -0.939366 -2.111402 2.093989 -2.361096 -0.434164 -0.841856 1.011544 1.508937 -0.833135 -0.217545 0.461837 -1.900197 -0.294199 0.900160 -1.515146 1.489366 1.273135 -0.349608 -2.420242 0.281209 0.147584 3.458042 -0.634897 -0.660950 -0.008476 1.669720 -1.230231 -1.614567 0.542315 1.663581 -0.301763 -0.162341 -0.015090 1.817798 -0.392472 0.168528 -1.480779 -1.499152 -1.035715 -1.257612 -0.463660 -4.012989 0.950530 -2.184399 -0.635018 -1.548905 2.955101 0.601527 0.317981 -0.751722 0.384919 -1.417590 
I 0.851137 -0.888390 -1.624596 -1.978877 0.823528 -1.861444 -0.509007 0.534145 1.370777 -0.596796 0.405052 -1.342118 -0.646595 -0.251811 -1.980896 0.164369 -0.124125 0.701190 -1.096335 2.279098 -0.524360 1.932202 -0.335517 0.227317 0.089447 0.522678 -0.691837 0.349449 -0.388268 -0.500239 0.771884 0.945467 -2.462309 -0.589182 1.026721 -0.313893 0.244803 -1.987439 -1.275995 -0.442601 0.476045 -0.448729 -1.650703 0.986764 -0.626018 -0.836181 0.590923 1.677704 0.763848 0.230443 0.728221 -0.239180 -0.901320 1.087106 0.131439 0.968369 -0.343347 1.154416 -0.190648 -1.000173 -0.719280 0.849992 -2.475694 -1.875774 -0.423707 0.064075 -1.414333 -0.993707 0.203817 1.115630 -0.825547 -0.518421 0.650694 0.204208 1.195710 0.574721 0.355158 -0.956106 1.140360 -0.506711 1.800058 1.550950 -0.848167 1.373428 0.905909 1.423867 -0.946179 0.768363 1.235680 -3.200877 0.834265 -0.692448 -1.221922 0.331006 -0.777075 -0.326132 -1.017195 -0.906020 0.093355 -0.243024 
Si 0.501244 -1.483988 -1.717677 -0.738784 -1.775570 2.079188 2.752857 2.113858 3.771642 2.071463 -1.899224 -3.457593 -0.924276 -4.775094 -0.781482 -1.598556 3.315683 2.085466 -0.579182 -0.016515 1.413334 1.652122 -1.913288 -1.005142 -1.778491 0.114273 -0.147716 -3.851699 -1.368644 -1.475062 -2.340269 -2.846712 -0.534978 -1.078945 2.367651 -0.256724 2.255757 1.349067 -1.605212 -0.533163 -0.537932 -0.191522 -0.121172 2.269445 -0.368565 -2.423217 -1.680118 0.087250 2.367294 -2.162481 -0.281081 0.852535 -0.880610 0.931590 1.074134 3.023105 1.056401 1.648055 -1.483424 -1.344631 -2.588516 -1.662474 -0.380775 -1.262182 1.051359 -1.611268 0.036690 -0.866144 2.982555 0.866126 -1.634107 0.767372 0.844054 -1.022535 0.914160 -0.656384 -2.303163 1.168119 -0.016482 -0.669314 2.546189 -0.393986 0.820114 -3.475241 -0.200753 -0.507006 1.580407 -0.086788 -0.262858 0.083087 2.484890 0.948283 0.589300 0.424686 -4.909382 -0.253491 -0.306595 -1.513423 1.273375 -1.594780 
% -2.767634 -0.018608 -1.311625 -1.327472 -2.070545 3.307364 -0.734678 1.033542 -0.696054 3.126930 -3.520498 -1.360507 0.833298 1.150190 -0.952806 -0.108783 1.733874 -1.619581 4.323584 1.748754 2.462958 1.363586 0.400806 -1.839762 0.671144 -1.943096 1.119135 -1.200041 0.101863 -0.077397 -0.452865 1.143309 -1.549759 0.173377 -2.785184 3.270257 -1.362954 -2.283608 -0.127188 0.759781 1.458955 0.405048 -1.091809 0.287450 -0.284355 -0.657344 -0.509526 -0.269381 0.541877 2.562022 0.739666 2.650147 -1.010548 -1.301718 0.737428 0.906376 -0.364190 -1.682646 -0.122871 -2.176708 1.030001 -0.293744 1.803621 -1.433774 -0.671277 -2.660284 -1.604043 0.692622 -1.330338 -0.057216 -1.900244 -1.523068 1.172976 -3.219773 -2.319498 -1.000447 0.183222 -3.731390 0.375989 0.443791 1.300929 0.086968 0.629533 -2.676006 -1.261808 0.665529 1.069289 1.212735 -2.712268 -1.039703 -1.266822 0.291442 -2.295110 0.285190 -1.257601 2.322800 -1.745045 -0.580192 -1.221605 1.087362 
Sn 0.209212 -0.803424 1.189027 -0.305020 -0.267374 2.471675 -0.269600 0.410292 1.604786 1.935433 -1.479953 -3.235464 3.103660 -3.606648 1.620646 0.501211 1.038177 -0.545576 0.051108 -0.988090 0.607760 -0.238521 -1.152776 0.679803 -3.349058 -0.622782 -0.471079 -1.814863 0.597113 -0.177111 -0.918559 0.422131 -0.361058 -0.773423 2.085860 0.168419 2.629443 -0.368984 -1.209323 0.366704 1.746791 -1.935552 0.073257 2.994301 0.143723 1.147677 -0.892939 0.089171 -0.646830 -2.417929 0.246395 -1.992541 -2.106017 -0.217857 0.246716 1.432559 0.322504 -0.875855 -0.242357 -1.484664 -0.079481 0.967148 -0.222683 1.676177 2.168765 -2.215210 -1.552488 -1.110757 2.288866 1.591160 -2.406898 -0.288016 -0.367150 -0.573689 -2.586725 0.443450 -0.462224 2.038829 -1.096258 0.401491 0.681629 0.030883 1.897421 -0.762416 -0.670741 -2.923447 3.091867 -0.384810 -0.225743 -1.530598 0.158447 2.419668 -0.908888 -1.987110 -0.367157 0.741556 -0.060542 -0.750286 0.673110 -0.454780 
As -2.467373 -0.102991 1.632470 0.038992 0.288058 0.111122 -0.430839 -1.921391 2.347269 2.971873 0.797704 -0.752375 -1.603728 -0.883295 0.847392 -0.215998 2.357871 0.761152 1.532551 -0.010367 0.403803 0.153953 -1.209003 0.432915 -3.887062 1.937896 1.684709 0.091991 -1.840548 -0.495882 -2.203114 -0.894467 2.208598 0.472451 -0.145420 0.587697 1.502960 0.412331 -0.061997 2.205960 -0.178466 1.983963 -0.063356 1.946026 1.744423 0.448227 -1.470636 -2.836189 -0.874217 0.104007 1.519722 -0.966085 2.106308 -1.653562 1.238703 1.680671 -0.952507 1.589202 -2.167047 -0.821437 0.074036 0.439946 0.049342 1.185997 3.185745 -1.689177 -1.024282 -0.547676 0.166567 2.104142 -0.791152 -0.150340 -1.297361 -1.231135 -0.593961 -0.914933 -2.900598 1.937964 -1.295846 0.790942 -0.266554 2.132701 0.237671 -0.552024 0.092411 -1.749699 2.980253 -0.109534 -2.247095 0.655319 0.095505 1.511556 0.922097 -1.013314 0.409953 0.050738 1.836337 -1.192304 -0.326411 -1.550825 
Se 0.007296 -1.710037 -0.698421 -0.512526 0.147905 -0.414467 0.756435 0.878805 1.208275 2.044426 -0.664484 -0.368476 1.697105 -0.285156 1.684270 -1.363438 2.325567 -1.283113 0.005137 0.719468 2.146853 0.642889 -1.247017 2.200573 -1.626856 -0.105782 -0.675193 0.553332 -1.006523 -0.150959 1.987526 -3.850222 2.078185 -1.156184 2.400945 -0.776344 0.971625 0.963622 -0.470230 -1.132902 0.387664 -0.602190 0.604680 1.817591 1.170038 0.214058 -0.075354 0.282091 1.351576 1.076882 0.107196 1.245102 -0.846093 1.472654 1.044680 0.813739 -0.338180 0.020997 -2.049337 -0.803242 0.002992 -1.154290 -0.149318 -0.294569 1.654893 -2.269708 -0.313739 0.781666 2.000213 1.769407 -2.312079 2.107755 -0.401387 0.445615 0.923395 0.653076 -1.520903 2.151463 -0.572032 0.801674 2.104211 1.902805 0.126922 0.665275 -0.974825 -2.110148 0.749171 -1.068138 0.544801 0.197239 1.442582 0.802968 -0.224863 1.097256 -0.478582 -0.292964 0.781346 -0.283781 1.505022 -1.431853 
* 0.168520 -0.603078 -2.097218 1.265865 0.256442 0.921720 -1.700288 -0.905235 1.326745 2.330384 -1.991171 -1.295055 4.949059 -1.876018 2.815802 1.128473 0.382573 -2.334390 -1.753026 -0.680678 -1.487707 -0.823190 -1.932862 1.768164 -1.981577 -1.367125 0.122816 -1.669807 -1.700796 0.192125 1.624885 0.395192 -0.835013 -1.453018 0.555040 1.585898 1.081756 3.234800 -0.271145 -0.700105 2.022283 -1.180827 1.786146 3.442632 0.238503 3.385373 0.313155 1.845571 -0.072980 -0.718836 1.035241 -2.799875 -4.726621 -1.744327 -0.786357 2.855766 0.194006 -1.559038 0.376137 -3.345520 -0.125310 0.838444 -1.403473 0.080876 1.425246 0.026944 -3.490710 -1.785184 0.240050 0.759208 -0.856849 -1.599478 -1.478525 2.745294 -2.882023 -0.919274 -0.268038 -0.426051 0.826041 1.238216 -0.996343 -0.759598 1.281274 -0.610604 -0.327660 -0.657090 0.603867 0.551791 1.221718 -3.686061 -0.907154 2.953256 0.916321 -0.077193 -0.999653 1.760495 1.298899 -1.774776 -0.871371 -2.411650 
Hg -1.577833 -1.385077 -1.134367 -0.241920 1.229521 0.575568 0.252387 -1.439751 1.036704 1.088859 -1.588985 -0.274813 0.179431 -1.918083 -0.093300 0.451279 0.222476 -0.637958 0.972677 -0.153844 -1.919382 -2.272513 -2.177365 0.717396 -1.056347 1.121861 0.186189 -0.457878 -0.004541 -0.396913 -0.305181 -1.949643 1.155424 -0.460553 0.261252 0.253024 -0.192066 -0.185595 2.730551 -0.001549 2.117483 0.767794 -0.352953 3.524233 -1.523836 0.360575 -0.289920 -0.438474 -0.204786 -0.469392 1.527703 -2.311346 -2.315866 0.391568 0.869855 2.056283 -0.689702 -0.029088 -2.130444 -0.827819 -2.326119 1.105682 -1.980136 1.194800 0.749710 -1.184785 0.133202 1.229064 1.018041 0.992244 -0.768754 -0.302051 -0.927001 0.089944 -1.544839 -2.118377 -0.510099 0.292997 2.470826 2.041737 -1.075869 0.098017 0.524686 -1.418030 0.445005 -0.922779 0.574712 -0.410406 1.934545 -2.223422 1.963504 0.705398 0.769174 -0.118230 -0.003579 0.723818 3.532617 -2.212802 -0.025006 -2.943490 
B -0.636159 -0.502714 -0.206673 -2.593014 -2.036388 -1.648893 2.005322 -0.226519 -0.370792 1.655459 -1.983598 -0.510296 0.486302 0.473799 -2.188980 2.651443 0.975513 -0.022872 1.626060 1.447694 1.713961 0.245970 -0.326193 1.400036 -0.705781 1.221790 0.007531 -0.173877 0.235856 0.772326 1.227629 1.715277 -0.896556 -3.076787 2.034419 0.263341 -1.481236 -1.567075 1.226760 -0.612781 0.154889 0.594473 -3.943243 -0.582677 -1.288249 1.008255 -0.328087 0.632468 2.119225 2.266766 1.432020 2.486516 -1.871882 1.512988 -1.531898 1.124620 -0.544296 -0.843884 -0.889833 -3.962759 0.422996 1.724934 -2.301187 -2.280956 0.059908 0.602607 0.162721 1.656237 -0.110199 -0.141288 0.466615 0.718051 -1.309050 -2.016000 -0.205648 -0.499603 3.430684 0.287748 0.368211 -0.003808 2.058819 0.969861 -0.906355 1.068729 -1.726899 0.072246 1.315718 -1.014713 3.762872 -0.079436 1.217348 -0.465473 -0.634737 -0.313732 0.684265 -1.085533 -1.996939 -0.398985 0.547540 0.864530 
Pt -0.635483 -4.057042 3.831368 -1.034277 3.484625 -2.669147 -2.732895 -0.954143 0.744325 -0.930329 0.440882 1.570110 -0.110476 -0.616012 -1.825148 -0.560212 1.739083 0.586900 -0.548323 1.517577 -1.121024 3.867562 0.290445 1.355904 -1.602394 -0.189087 -1.248895 2.775398 -1.241895 -0.286431 0.000924 -0.051748 0.288705 0.356732 1.733820 -3.395805 -0.874662 -0.108162 0.329268 1.191046 1.581390 -1.659133 1.039686 0.389942 1.637334 2.804780 3.118078 -0.004716 -1.057310 -1.519274 2.933969 -2.152321 -0.146070 0.365572 0.702410 1.961492 -1.383417 0.054319 -2.945265 -1.921366 -0.424303 0.349541 -2.444333 0.319165 1.141354 -0.871159 -3.290796 3.739177 0.351004 2.570620 -2.469859 0.152929 -1.570429 -0.069758 -0.673780 -1.332624 0.431163 2.644799 -0.199062 0.833419 -0.758701 1.969441 0.771947 1.345594 -0.364025 -0.858665 -0.371957 -3.170133 1.762636 -3.889088 2.040486 0.388186 -1.867297 0.069238 2.976611 -0.247086 1.007087 -0.384429 1.011964 -2.932470 
e 1.225537 0.633606 -1.193945 -0.630987 0.843644 -1.892386 -0.832470 -1.794690 -1.494250 -0.204913 -0.784081 0.512192 0.297891 -3.083201 -0.197697 2.481767 -1.758971 -2.393965 0.209092 1.271279 -3.441055 2.039587 1.588132 -0.887363 1.896560 -1.232015 -1.395945 -0.913453 -0.287207 -1.216575 -0.040146 -1.408596 -4.117486 -0.874804 -1.161027 3.076072 -0.639678 -2.584774 0.498330 0.118805 1.972641 2.241854 -1.901267 2.402141 0.875628 -0.497089 -0.864542 2.466512 3.438802 -0.023642 -1.263247 -1.401288 -0.724319 -0.414928 0.783458 1.373865 1.063015 0.354954 1.105524 -0.414579 0.583942 2.310448 -1.087209 -1.041096 -3.006176 0.001754 2.181431 -2.166198 -0.178390 1.658938 3.806522 0.647277 3.710491 -0.666791 -0.603761 0.629851 -0.360859 -1.590733 3.224182 0.711045 1.015397 0.931200 -1.061266 -0.585306 2.061822 1.150072 -0.423625 1.515719 0.383186 -1.583646 -1.212860 -2.110190 0.129990 -1.522360 -1.907872 -0.305779 -2.364315 -2.018145 0.756493 2.611040 
Au 1.306860 -1.168901 1.287946 0.192853 0.644844 -2.633252 0.635710 -0.227630 -0.651865 0.315989 -0.592763 1.540004 1.901159 0.147954 0.698272 0.011496 1.341903 -0.796120 -1.613335 1.797724 -0.964183 3.592217 -1.586382 0.543486 -1.028275 -2.027417 -0.660310 -0.257957 -0.957967 -1.753467 2.057612 -3.978886 -0.729372 1.473043 0.884166 -2.210933 1.871455 1.647333 1.932331 -2.379388 2.446437 -1.633052 -0.507494 1.546142 4.221076 4.551234 1.491101 0.662107 0.653337 0.997662 1.209176 1.547974 -2.664726 -0.283925 1.389708 1.351609 0.660397 0.302620 -2.507067 -1.555024 1.637570 0.132024 -2.739670 -1.214793 0.483556 -2.722082 -3.266109 2.386983 0.836301 3.251028 -0.994274 1.515592 -1.636243 -0.368745 -0.855337 -1.312029 -0.601909 -0.888408 0.805520 1.125151 0.542782 0.810008 2.646720 -0.425262 -0.209293 -5.928315 -0.159130 -4.420136 0.364038 -3.619643 0.692812 1.977196 -2.280452 -2.619545 1.265265 2.097008 -1.267520 0.144989 0.567171 -3.815477 
Ge -0.171529 -0.807564 -0.962608 0.909788 -0.393713 1.386372 1.431791 1.240885 0.601559 1.195427 -2.007525 -0.246798 3.065190 -3.246886 1.886257 0.219335 1.289328 -0.016483 1.023393 1.580847 1.394418 2.526873 -1.009037 0.167213 -3.202687 0.016236 -0.032550 1.142337 -0.679120 0.620717 -0.424127 -1.912542 0.701148 -1.827192 0.375089 1.593454 0.786420 -0.064385 2.106621 -1.708188 2.599545 0.047281 0.588551 1.160343 1.919698 0.964816 -0.054058 -0.218000 1.990047 -1.632757 -0.305936 -0.274653 -3.091565 0.543271 1.157803 0.584635 0.395896 -1.742966 -1.040707 -1.261486 -1.148615 0.672870 -1.142604 0.701324 0.174718 -1.600613 -1.374468 -0.534153 0.920446 2.489357 -1.204110 1.466901 -0.338945 0.831857 -0.860778 -1.560569 -0.402185 0.873172 -0.654761 0.977639 0.353184 -0.785813 1.036087 -0.592466 -0.661910 -1.826431 1.028513 -1.223430 1.582629 0.130674 1.077847 1.835097 0.678345 -1.253371 -1.286790 0.876009 -0.630242 -1.595690 -0.355193 -0.768297 
Cu -0.534320 -4.122654 5.223640 -2.303036 1.980337 -1.268752 -3.609051 -0.838550 0.423470 0.488091 0.840115 0.478350 1.056605 2.538914 -1.533407 0.163062 1.303365 0.971268 1.640091 2.482771 1.179260 4.015424 -0.397125 2.780926 -2.001998 0.334609 -0.967597 3.025254 -0.885004 0.991450 -0.836431 -1.080229 2.092122 0.225984 2.637425 -3.113240 -0.442757 -0.952715 0.136113 1.358445 0.701938 -0.046168 0.768177 0.094130 1.904112 2.529361 1.378987 -0.781582 -1.212058 -2.499038 4.516247 -1.827960 -0.046933 1.340146 -0.934774 1.053277 -1.973015 0.093037 -3.376884 -3.086066 0.033629 1.531118 -2.721526 0.329355 2.885384 -0.379699 -2.827194 3.043818 1.896412 3.356908 -2.741889 0.733492 -1.863675 0.376927 -1.076834 0.023056 -0.077798 3.765712 -1.599963 0.401930 -0.106458 2.205146 0.461758 1.827001 -0.892115 -1.603163 -0.154535 -2.044897 0.693501 -2.463757 2.482773 -1.008850 -2.227020 -0.233182 4.897951 -0.243883 0.408756 0.086748 1.815098 -1.777700 
Na -0.082862 0.956842 -0.333622 -0.357367 -1.075210 -4.143579 -0.962268 -0.158316 -0.560099 0.954828 -0.699879 0.164222 2.881853 0.757219 0.108335 -0.282037 -0.302168 -0.774185 0.507090 4.152277 0.074257 3.313786 -0.674693 1.736387 0.683592 -2.267163 -0.356716 -1.645893 -1.146932 0.198576 1.476290 2.444454 -1.724670 -0.466987 -0.008600 0.501811 -0.693243 0.441549 1.803809 -0.943035 0.844169 -1.379965 -1.203387 0.764391 2.256786 3.797494 0.777825 0.344281 0.720775 0.568305 0.322694 0.862435 0.012710 -0.091990 -1.430487 -0.456535 -1.426949 -0.456408 -2.384338 -2.941227 1.040868 2.940230 -2.449152 -2.116713 0.452508 -0.123116 -1.543019 -0.821047 -0.281488 -0.681222 0.016881 -1.496819 0.536156 1.112342 -1.787875 1.650769 -1.236013 0.815034 0.673082 -0.664174 1.293491 -0.051994 0.573566 1.116692 -2.144223 0.105807 -0.772931 -0.113743 1.493723 -3.221379 0.050948 -0.621747 -2.337214 1.275436 0.078983 1.089480 -3.005263 -1.273222 0.008654 0.011634 
Fe -1.062344 -2.144068 2.683432 -0.208555 2.039883 -1.888841 -3.061257 -1.706976 -0.662103 -0.292692 -0.282499 0.887735 2.201203 -0.828097 -0.571065 0.157548 0.796385 -2.149784 0.592268 1.815754 -0.413060 2.999184 0.397174 1.056069 -1.427717 -0.695522 -1.418879 0.662411 0.354080 -0.583283 0.415462 1.388429 -1.039935 0.218651 0.988838 -1.258955 -0.980819 -0.358175 0.710246 1.124730 2.516629 -1.618950 0.378761 1.167589 2.380888 3.284007 1.964603 -0.387584 -1.826901 -0.578516 1.964886 -1.621429 -2.133203 -0.684964 -0.741785 1.849019 -0.060608 -0.874385 -1.172127 -2.840648 0.715276 1.688460 -1.532426 1.117689 1.072971 -1.120579 -3.317953 2.032936 -0.519040 2.317369 -1.525170 -0.197490 -0.245944 0.520347 -1.876876 -1.583658 0.491469 0.682321 -0.457998 1.265155 -0.755066 0.061725 0.459815 1.322466 -1.322740 -0.465795 0.021799 -2.032543 0.390706 -3.554811 -0.247403 0.104038 -2.631252 -1.208651 2.610988 0.654678 0.134697 -0.899470 -0.357885 -1.848329 
Sb -1.295125 -2.154562 0.991760 -2.728848 0.398440 -2.633624 -1.599257 0.486270 2.869524 0.708299 -1.287936 0.032157 0.824808 0.387087 -1.668949 0.318336 -0.243909 2.189455 1.652190 1.863801 0.487868 2.451722 0.211718 1.705257 -1.360555 1.158746 -0.159291 1.862085 -0.911708 -0.794270 -0.196308 1.169372 -0.526878 -1.102759 1.109991 -0.189501 -1.400236 -3.325245 0.079421 1.317462 1.017985 1.410433 -1.505121 0.929322 -0.720258 -0.044650 0.085869 1.674777 0.540771 -1.226231 2.644175 -1.911020 1.170883 -0.164614 0.780472 1.788064 -1.525694 1.328471 -1.679251 -2.853772 -0.311180 1.583501 -2.283899 -1.566939 0.394461 -0.032315 -2.016498 -0.166231 1.377248 1.139096 -1.692691 0.172008 -0.035462 -1.392823 0.522033 0.153857 0.109021 0.356623 0.412340 -0.314017 1.786400 3.308635 -0.547363 3.667936 0.013754 0.171309 -0.436673 0.597400 0.524906 -3.248120 1.940227 -0.767474 -1.766256 -0.048357 1.206437 -0.189642 -1.022667 -2.227730 -0.140148 -1.340220 
T -0.184455 -2.584726 0.219971 0.923231 1.002187 -0.577007 1.627385 -1.495177 0.427340 0.551168 -2.152014 -0.523421 -0.197215 -0.935335 -1.841297 0.086878 0.852230 0.022774 0.478374 0.839468 0.906901 0.113501 2.186338 0.861845 2.893246 2.281955 0.625115 -2.365824 -1.589511 -0.189220 0.008277 -0.110987 -0.500439 1.106157 2.787702 -0.678459 -0.279786 1.323912 -0.365676 1.692437 -2.241377 -0.475498 -3.130297 0.009643 -0.187703 -1.440468 1.081396 -3.466752 -0.509825 -0.324700 1.508417 2.659672 -0.047504 -0.512441 0.348852 0.905943 -3.644024 -1.694161 0.390291 1.315520 0.234259 0.321052 -2.157213 -1.275871 -0.392996 1.368796 0.614200 4.411112 -0.954403 0.024739 -1.680782 2.835537 -1.491113 0.081015 -2.426535 -1.940705 2.008380 -0.992953 -0.753883 -0.116670 -0.661737 -0.088732 1.713116 -0.212225 -1.020176 0.043751 0.945226 -1.808862 0.205341 -2.769747 3.083786 0.044587 -0.503588 -0.213393 2.032014 2.595701 -1.696227 0.719563 -0.088042 -0.790364 
R 0.487720 -5.644278 1.542872 -0.759266 2.444862 -1.606552 0.677198 -1.416433 -0.588017 3.779668 -0.440168 -1.338985 1.727201 5.762559 -3.498570 -3.546734 -2.542795 -3.544902 0.523628 1.768682 1.888691 2.024572 2.903740 0.745045 6.900070 -1.726918 1.302279 -0.212554 -2.713304 -1.193867 1.699532 -3.947650 -1.058831 3.141546 0.808430 -0.373136 -0.717747 2.820141 2.085547 1.091674 -3.188000 1.341952 -1.746067 1.100992 -1.418182 -1.456627 -0.364637 -2.417299 0.250853 0.832891 1.067225 5.507044 1.493628 -0.628606 0.668363 2.461951 -2.560226 -0.250822 -2.897962 1.228595 2.857190 0.323129 -1.783217 -4.597611 -3.516750 2.072993 2.218905 5.578258 -1.054967 0.875899 -1.035212 2.335150 -0.039586 0.495307 -1.376670 2.387779 -0.296692 -3.015907 -0.043636 2.369955 1.101079 5.930344 0.222684 2.098179 1.518662 1.417158 -1.155062 0.812463 -0.982364 -1.956756 3.181918 -2.621320 -2.650349 1.676685 0.851848 2.339337 -5.194301 2.004200 -1.798397 2.277596 
Co -0.696988 -2.698071 3.119368 -1.467950 1.112961 -1.536481 -2.077763 -1.233507 -1.199129 -0.519459 0.244833 -0.054612 0.950626 3.959320 -2.082418 -0.427129 -0.749493 -1.930814 0.413977 2.216779 1.078787 2.812107 0.592345 0.758245 1.309890 -1.398470 -0.264951 1.457255 -1.068754 0.321801 1.239905 0.279962 -1.249707 -0.374999 1.037895 -1.010246 -1.042533 0.364985 1.090712 0.307733 0.303955 0.000831 -0.406904 -0.982240 1.016896 2.414613 0.866820 -0.824140 -0.383649 0.479959 2.334352 1.045396 -0.306637 0.199741 -1.250804 0.727541 -0.339678 0.139781 -1.866165 -2.207737 1.580374 2.140737 -0.992890 -0.874649 0.154330 0.510730 -0.803992 2.855388 0.331794 1.003836 -0.210165 0.083704 -0.549774 0.533006 -0.781796 2.068641 0.632189 -0.193985 0.495029 1.321339 -0.337237 2.306657 0.261783 1.396465 -0.060236 0.967787 -0.795532 0.079308 0.971826 -1.779571 -0.321081 -2.123679 -2.099351 0.747796 2.422227 -0.368128 -1.265402 0.729114 0.812193 0.879189 
i -3.287391 -2.200542 3.363657 -3.223871 1.848856 -3.616491 -1.747202 -2.027161 -0.287688 2.470998 -0.842151 -0.330527 -0.030151 -0.009938 -3.729925 -0.299585 0.399726 1.017611 2.861334 1.151754 -0.444246 3.757774 1.024939 1.556008 -1.354300 4.069060 0.048292 2.291119 -0.639875 -0.767652 -1.620754 1.550133 -0.131497 -1.881441 0.406162 -0.812523 -2.528458 -4.986068 0.762343 3.161863 0.251904 0.187995 -1.012869 -1.127788 -0.721274 0.626654 0.813844 0.686572 1.393078 -1.920924 3.012278 -0.833337 4.263103 2.515309 -0.476160 0.868433 -3.059852 1.108189 -2.083402 -4.118576 -0.608423 2.581182 -3.755451 -0.682017 0.036242 1.699615 0.134191 1.723249 1.107857 2.315774 2.148323 -0.622651 -0.650149 -2.062549 -0.755761 1.004919 0.450064 2.807806 1.260410 0.889229 0.018820 3.465231 -0.799150 2.267958 -0.908970 1.680698 0.684913 0.707794 1.352933 -0.705788 3.308028 -3.331957 -1.414570 -0.387792 2.170836 -1.284493 -0.575156 -2.418616 2.623291 0.066667 
Pd -2.216591 -2.159183 2.887672 -1.154606 2.127568 -1.594657 -1.738434 -2.522797 0.049870 1.053668 0.185064 -0.046866 1.437851 0.472933 -0.367647 0.812514 1.362405 -0.912771 0.279927 1.096595 -0.523474 2.038143 -0.348952 1.506921 -1.719377 1.225497 -0.977146 1.685995 -0.720677 0.379423 -0.970431 1.187229 0.827508 -0.327666 1.505063 -0.537213 -0.238836 0.837091 0.197863 2.399133 0.790720 -1.126275 -0.426465 0.211824 1.345831 2.240108 0.521152 -1.014948 -1.446771 -0.388817 1.933287 -1.395974 0.194905 0.150587 -0.884965 2.148043 -1.306672 -0.446695 0.149119 -2.288771 0.401374 1.160580 -1.176637 1.007970 1.451524 -0.545675 -1.464435 1.149032 0.356083 1.734407 -0.298214 -0.836387 -1.080772 0.807834 -2.553509 -1.566157 0.537716 2.028818 -0.610749 0.197351 -0.901803 1.317932 -0.105620 0.415296 -1.859367 -0.274439 0.031020 -1.181885 0.950193 -2.062453 1.098149 0.061151 -0.370224 -0.949010 2.465302 -0.733771 1.144794 -0.590509 0.404878 -0.943455 
Zn -2.086959 -2.580915 3.638770 -1.754990 0.779905 -1.770516 -1.969639 -2.312331 -1.165838 1.349456 0.019144 -0.332573 1.850884 3.048950 -1.324488 0.291979 0.577759 -1.528450 1.911192 1.915080 0.510633 2.613190 0.644974 1.771334 0.213915 0.263695 -0.734702 1.482969 -0.414436 0.744824 0.147965 1.151725 0.248333 -0.136360 1.326663 -0.474150 -0.746657 -0.556886 0.601673 1.659543 -0.516506 -0.698382 -0.334921 -0.979770 1.049729 2.218943 0.371649 -0.992060 -1.158067 0.134773 2.386243 -0.297792 -0.693788 0.350347 -1.631106 0.973615 -2.165285 -0.417233 -1.342137 -3.076489 1.017010 1.766441 -1.360813 -0.099696 1.140731 0.275854 -1.138124 1.699492 0.400786 1.751952 0.036613 -0.056095 -0.795381 0.712277 -2.385989 0.743110 0.108134 1.045125 0.069751 0.470303 -0.672733 2.318647 0.422983 1.013291 -1.128128 -0.045920 0.358435 -0.004611 0.423155 -2.223090 0.534876 -1.322683 -1.617556 -0.723599 3.312116 -0.149244 -0.786800 -0.035580 0.669695 -0.058576 
Pb 0.055579 -0.700609 0.641011 -0.055214 0.697785 -1.294708 -0.040457 -1.024902 -0.105599 0.582228 0.162351 0.408992 0.691181 0.168449 -0.331873 -0.297426 0.051114 -1.569938 0.110447 0.905410 -0.589096 0.947472 -0.170996 0.184326 -0.023141 -0.621352 -0.375823 0.297699 0.142120 -0.409526 0.396404 -0.546597 -0.163856 0.460834 0.470061 -0.605136 -0.224050 0.487433 0.919025 0.162535 0.902472 0.003556 -0.220263 0.438386 0.673640 1.309838 0.525672 0.144993 0.001813 0.394615 0.233078 0.366909 -0.613047 0.115386 0.256134 1.010775 -0.002627 -0.235521 -0.551983 -0.742549 0.435862 0.519376 -1.188175 0.138078 0.333691 -0.464889 -0.354536 0.895314 -0.185646 0.998089 0.262678 0.195447 -0.344432 0.421297 -0.296844 -0.580990 0.376989 -0.043941 0.229904 0.574417 -0.196187 0.652119 0.228881 0.377590 -0.096746 -0.704798 -0.157218 -0.965154 0.558600 -0.829203 0.344802 -0.049590 -0.848110 -0.343768 0.966907 0.034323 -0.021841 -0.407220 -0.114192 -0.516612 
M -2.008237 -0.725300 4.737659 -0.234090 -2.014092 -1.436783 -2.731792 -0.388559 -3.210440 3.199815 1.439058 -0.395871 1.552021 5.384998 -0.465646 -0.579847 -0.327724 -2.317998 4.424207 -1.595128 0.381682 1.574670 0.789178 1.438160 0.157888 -2.565328 0.762294 1.653627 -0.174357 -1.069223 1.195071 -0.732237 3.086174 3.779809 -1.772503 0.126881 -1.009903 0.179783 0.708771 2.074380 -1.039581 0.134570 0.337942 -0.924014 2.587541 2.824936 -0.449622 -1.319928 -1.788435 1.931172 0.547604 -0.776098 2.183923 -2.556094 -0.678000 -0.764744 -2.312067 0.409798 -0.355779 -2.069080 4.267735 1.066415 -0.285583 0.419649 3.668584 -1.855126 -2.192840 1.427235 -0.887134 1.823345 0.160682 -1.318915 -1.647136 0.092789 -3.416001 2.094330 -2.262634 -0.116648 0.037812 0.257577 -0.934123 3.480735 1.506530 0.874280 -0.975408 -2.824108 0.470876 1.857012 -4.496263 -0.613999 -1.383122 -0.909375 -3.315989 -0.424060 3.580293 1.419463 -0.609365 2.285018 -0.057536 -1.037249 
a -0.540473 1.129024 1.012037 -1.169438 -0.765168 -3.035810 -1.874668 -1.921564 -4.163266 1.698841 -1.073861 0.829059 0.543657 3.369674 -1.907936 -0.806547 -3.094342 -1.406554 3.294725 2.391317 -0.769045 2.103508 1.820906 -1.298548 2.430915 -1.439913 -0.315870 2.009058 -0.479818 -1.409617 -0.309023 0.036229 -3.221863 1.221091 -1.179078 0.434116 -2.266248 -4.838625 1.404900 0.919167 1.205343 2.941495 0.017096 -2.822749 2.935619 2.542782 -2.055858 4.330016 3.243624 0.729599 1.161599 3.345006 2.898521 -0.071059 -0.726434 -1.244451 -0.300298 1.803908 -1.761125 -3.769529 1.529606 3.968480 -2.019753 -2.958836 -1.629464 1.396736 1.756167 0.436341 1.033450 -0.359671 5.557431 -1.717247 2.398032 -2.397279 0.171780 4.138319 0.401859 -0.543401 3.581797 0.317109 0.158380 4.436910 -0.572139 1.505576 0.152637 -0.734791 -0.629653 3.926281 -0.999235 0.028662 1.034087 -3.795947 -2.408693 -0.498182 0.472824 -1.178159 -3.367727 -0.097364 2.808188 1.595305 
Cd -1.890938 0.386438 0.106893 -0.260726 0.206524 -2.243761 -0.367261 -2.870635 -0.699380 1.265181 -0.898510 0.461507 1.064410 -0.849814 0.271350 0.512645 0.159289 -0.840735 0.569486 1.510907 -0.818955 0.456365 -0.221344 1.120287 -0.022799 0.287564 -1.868615 0.667605 -0.924522 0.549706 0.624308 2.954966 -1.870384 0.051225 0.144845 1.791752 -0.316163 0.741728 1.125395 1.249495 0.882667 -0.143855 -0.911105 -0.752965 2.303647 2.945525 -0.202787 -0.346858 -0.566595 0.920084 -0.064716 -0.576145 -0.579306 0.233700 -1.740163 1.138025 -0.588531 0.013616 0.442843 -2.274131 -0.047554 1.345446 -0.517798 -0.396684 0.332910 -0.619182 -0.801606 -1.150489 0.031044 -0.444102 1.437929 -0.582810 0.689066 0.563085 -1.858797 -1.254173 0.954155 -0.491368 1.358064 0.214410 -0.419418 -0.076187 -0.676808 -0.173710 -2.131319 1.166452 -0.293717 0.276837 1.261779 -2.644942 -0.313802 0.023058 -0.635470 -0.281282 0.449755 -0.019655 -0.315084 -1.305861 -0.418038 -0.592964 
Ni -1.899445 -2.776403 3.946114 -2.172148 1.077548 -1.063198 -2.295764 -1.303654 -0.771316 0.271294 0.715765 -0.417130 1.365164 3.121947 -2.048074 0.836377 -0.138866 -0.836153 1.753745 0.675207 1.134890 2.768584 1.531791 1.414219 0.085669 0.005360 -1.013147 2.022344 -0.335364 0.249885 -0.322519 -0.380965 0.511521 -0.443165 1.730720 -0.903637 -0.797398 -1.908485 -0.438885 1.797536 -0.477623 -0.159354 0.289288 -0.840541 -0.022531 0.604156 0.323922 -0.702534 -1.346035 -0.148375 2.365205 -0.366389 -0.111154 -0.025077 -0.779680 0.804567 -1.489106 -0.061730 -1.076983 -2.254574 0.896377 1.306930 -1.072246 0.117133 0.320353 0.290310 -0.244222 2.103419 0.248196 2.417666 -0.544116 -0.063077 -0.344188 0.253809 -1.197127 1.341365 0.436497 1.508929 -0.758144 0.637295 0.038064 2.500030 -0.029741 1.578091 -0.215157 0.070625 0.209788 -0.104634 -0.443106 -1.081903 0.735006 -1.899553 -1.360284 -0.488826 2.708617 -0.672031 -0.424509 -0.144630 1.114567 0.481622 
A 0.559967 0.095998 -0.443811 -1.583236 -0.679232 -0.481278 -1.216327 -0.284181 -1.310512 0.307099 -1.114865 1.084933 1.001035 1.243765 -0.401765 -0.239932 0.083699 -0.886454 -0.849774 -2.576373 -1.553254 -0.955574 -0.294793 -1.693329 1.649349 -1.653997 -0.756750 0.834290 -1.068674 -0.004557 1.075761 -1.384284 0.353636 1.552720 -1.304412 -1.048520 0.626835 -1.060971 -0.161482 0.330733 -0.051262 0.449062 0.204539 0.941818 -0.162940 2.407666 0.434676 3.507465 0.152664 2.513678 -0.064572 2.390835 2.283341 -0.462532 -0.306676 -0.228560 1.047026 0.436831 1.168912 -0.246336 1.965717 0.916653 -0.386209 -0.210402 -0.726025 -1.416433 0.674716 0.366847 -0.293019 -0.905104 -0.112135 -1.909136 -2.105509 -2.198484 -2.386426 2.491874 0.062236 -1.160834 1.264525 -0.402632 -0.023212 2.162386 0.733340 -0.401033 -1.728132 -3.448393 -0.182304 0.318979 -0.598307 -1.369407 0.865502 -2.326395 -0.592661 0.307035 0.208061 0.506092 0.078430 -0.082910 1.274288 -0.900648 
V 0.084872 -1.251759 1.530957 -0.032651 0.614708 -0.885291 -0.946226 -0.620724 -1.105165 0.353176 -0.003439 -0.376669 0.955398 1.869519 -1.215185 -1.122269 -0.841200 -1.400993 0.611343 0.360696 0.056255 0.847629 1.221023 -0.268074 0.928221 -0.979179 0.298863 0.821399 -0.266323 -0.879021 -0.105889 -1.035825 0.236629 0.844053 -0.076081 -0.769864 -0.805023 -0.831164 0.693649 0.329383 0.242608 0.549937 0.252383 -0.539374 0.345273 -0.103049 0.386528 -0.407661 0.038376 0.645155 0.859833 1.823985 0.919824 -0.128119 -0.020992 0.012148 -0.414085 0.358178 -1.192992 -0.764940 1.407252 0.489306 -0.725616 -0.285360 -0.150252 0.739213 0.651202 2.480611 -0.580120 0.056945 0.127509 0.261545 -0.105922 -0.367108 -0.416043 1.058021 -0.571135 0.011027 0.417319 0.835703 -0.229724 1.556453 -0.269349 0.774525 0.092990 -0.308570 0.051145 0.941409 -0.729841 0.247847 1.003397 -1.372545 -1.289443 0.424625 1.016491 -0.241587 -0.663850 0.678297 0.262105 0.429116 
d -0.274273 -0.938563 1.009583 -0.714034 -0.482237 -1.992163 -0.585319 -0.680134 -1.232231 0.446822 0.042879 0.175303 1.226750 3.540997 -1.271072 -0.873427 -1.796803 -1.328856 1.158061 2.075768 -0.446568 2.133608 0.004189 0.236012 2.212152 -0.889607 -0.490429 0.275171 -0.346868 -0.385965 0.828134 -1.296763 -0.788733 0.906330 0.055467 -0.109530 -0.067776 -1.230996 0.050392 -0.766807 -0.686110 1.150967 -0.279746 -0.990941 1.059623 1.939045 -0.362358 0.291280 0.800068 0.530198 1.059741 1.964158 0.798565 -0.287990 0.062752 -0.215408 -0.592620 0.876061 -1.297585 -1.757579 1.050500 0.290603 -0.607184 -1.500131 -0.487418 0.300356 0.927841 2.123904 0.085672 -0.512915 0.476402 0.170388 0.843821 -0.848311 -0.344740 1.413129 0.554498 -0.738508 1.580442 0.121657 0.728213 2.630019 -0.727125 1.611169 -0.646357 -0.629561 -0.844088 1.520171 -1.094303 0.142662 0.940468 -1.680069 -1.614999 0.725545 0.624440 -0.521661 -1.221972 0.527102 0.548603 1.287211 
Ag -0.053649 0.877266 -0.638903 0.180989 -1.060667 -2.217409 -0.066038 -0.904695 -0.968708 0.832144 -0.463940 0.213795 0.331065 0.660181 -0.085016 0.628165 -1.051799 -0.261976 0.990846 2.205051 -0.583043 0.497322 -0.098039 0.514054 1.152952 -0.248705 -0.388693 0.279907 -0.482038 0.655768 1.360347 0.686441 -1.540249 -0.120384 -0.370305 1.238400 0.009850 -0.067877 0.714414 -0.465655 0.184327 0.592496 -0.434729 -0.744701 1.375637 1.520713 -0.434222 0.422433 0.726514 0.843908 0.007794 0.591895 -0.335112 0.240933 -1.002518 -0.175599 -1.014087 0.854055 -0.258044 -1.090715 0.546817 0.879325 -0.115185 -1.648502 -0.549674 -0.594083 -0.348254 -0.974359 -0.176447 -0.855291 0.767007 0.416285 1.253789 -0.184143 -0.691204 -0.084629 0.093323 -0.991337 1.416983 0.011472 0.423984 0.551031 -0.555064 0.057710 -0.871935 0.056298 -0.261495 0.993213 0.644726 -1.108804 -0.179242 -0.777662 -0.806967 0.431093 0.122620 0.491642 -0.983775 -0.218821 0.029492 0.453992 
K 0.575525 2.410460 -0.360238 -0.275159 -1.061092 -3.773149 -1.034499 1.278922 -1.901964 0.948955 0.914693 -0.167776 -0.804274 1.739763 -0.830771 -0.032245 -1.755101 -0.109852 1.582476 3.909652 -0.033045 2.138400 0.288740 0.323565 2.217442 -0.828858 -0.447270 0.682392 -0.144601 1.397173 1.923047 0.822676 -1.200870 -0.076779 -1.394730 2.176914 -0.558125 -0.071522 1.603844 -0.344758 -1.521428 -0.515797 0.906231 -0.565541 1.418145 1.221047 -0.801898 -0.392646 1.648088 1.304181 0.547494 1.398503 -0.068754 -0.478381 -1.566263 -1.393474 -2.663611 1.984722 -1.744801 -1.400744 0.535317 0.261883 0.367671 -2.461993 -0.625153 -0.667856 0.477399 -0.503363 -1.025925 -1.847211 0.743001 0.399694 1.530797 -0.778916 -1.141481 -0.201104 0.042438 -1.448045 1.488393 -0.793990 0.930702 1.019402 -0.512801 0.076388 -1.379926 -0.095264 0.233546 1.509714 -0.107399 -1.890512 -0.601685 -2.853188 -1.773550 2.711013 0.127434 0.254804 -2.034425 -0.006952 1.003379 0.002857 
G -0.406947 0.371568 0.008741 -0.532811 -0.871840 -2.776849 0.485283 -0.669185 -0.702045 0.600877 -0.247988 0.014565 0.483172 2.119839 -1.523217 2.428012 -0.628085 -1.324114 1.992729 2.245381 0.032043 1.572429 0.811019 -0.681272 2.028276 1.217005 -0.818319 0.676293 -1.023222 0.709698 1.106496 0.116404 -0.637966 -0.048124 0.419231 0.676006 0.399251 -1.234961 -0.440578 -0.735370 -0.551627 -0.524777 -1.583387 -0.521118 0.763896 1.305940 0.485386 -0.089465 0.646826 2.069273 1.155478 2.227968 0.821632 0.276939 -0.295955 -0.719457 -2.402536 -0.389460 -0.457894 -1.286886 0.632217 0.376918 -0.848907 -1.682992 0.474433 0.581221 -0.313321 1.522093 -0.829947 -1.184272 -1.323814 0.687482 0.235355 -0.920436 -1.466456 -0.920112 0.417050 -0.852833 0.887312 -0.190472 1.326091 1.502542 -0.462574 -0.635347 -1.330979 -0.104481 0.251843 -0.383124 -0.539301 -0.955153 0.488395 -3.073081 -1.228088 0.809888 0.832275 0.390755 -1.473623 0.028387 0.501243 0.644368 
r -1.217900 -2.107506 3.049326 -1.474422 2.605726 -3.775639 -2.056428 -1.208188 1.564562 1.109463 -0.749002 0.221392 1.086225 0.876761 -2.638170 -0.910922 -1.695490 0.419194 0.953882 1.913715 -2.259113 2.124073 0.928793 1.264267 1.397632 0.538170 -0.250074 2.126690 -1.452199 -1.406423 -0.987903 0.713525 -1.748538 0.087363 0.269713 -0.705525 -1.129735 -3.523211 0.225487 2.325670 1.526460 1.111454 -1.358920 -0.152896 -0.363695 -0.802108 0.146857 1.930184 0.610339 0.307752 2.372526 -0.134146 3.207660 -0.448346 0.389959 1.183547 -2.243979 2.308937 -1.277128 -2.192702 -0.157630 2.444345 -0.729387 -2.024645 -0.860739 0.201821 0.642030 0.877300 0.334610 0.305796 -0.724218 -0.316476 0.250452 -1.928125 -1.231411 0.705183 -0.355111 -0.320734 1.743791 -1.639837 1.912337 5.307132 -0.995574 3.250292 -0.170559 1.330536 -1.344382 1.064466 -0.315409 -2.665744 1.752965 -1.987154 -1.466419 1.179573 1.842492 -0.902643 -1.626361 -1.070880 0.164138 -0.298179 
Al -1.157579 0.683390 0.857767 -0.193456 -1.288664 -0.302457 0.813971 -0.803049 -1.012007 1.275086 1.553792 0.214074 0.481900 2.842863 -1.340362 0.568525 -0.499480 -0.884366 1.931195 1.547285 0.266155 1.044154 1.403907 0.684756 0.415363 0.133342 -1.265943 0.397345 -0.356486 0.198512 2.099736 1.283922 0.862872 -0.003747 -1.103181 2.314806 -0.482539 -0.699582 1.909297 1.316998 -0.404198 2.283149 -1.292788 1.181736 1.956803 1.167228 -0.238879 0.019358 1.399210 0.691674 0.292868 1.743265 0.787524 0.436913 1.796050 0.509554 -0.532011 -1.324914 -0.026158 -0.234262 1.195462 1.421558 -0.543479 -0.129911 -1.597086 -0.786741 1.965591 -1.228498 -0.482610 0.656697 1.063411 3.246526 -0.032818 0.344220 0.241543 1.343017 0.830366 -0.681517 1.138038 0.823467 -0.556866 0.320521 0.342209 -0.409766 1.470739 0.688898 -0.508388 1.440436 -0.480124 -1.544180 0.368582 -2.040651 -1.241323 -0.429603 0.352487 0.378667 0.050274 1.373814 1.200004 -1.199036 
p 2.748038 1.488521 -1.132448 1.622024 0.111090 -0.721343 0.575204 -0.289594 -0.957919 -0.450787 0.085322 0.465162 -0.499632 -0.545274 0.400675 -0.688450 -0.975041 -0.637858 -0.559798 1.466416 -1.161442 -0.158961 -0.402820 -0.714801 0.332888 -1.645924 0.127861 -0.879101 0.354222 0.533453 0.902538 -1.456063 -1.280363 0.989909 0.269961 -0.770517 0.264274 1.941836 0.613441 -1.424961 1.551798 0.496971 -0.520562 0.618279 2.080975 1.163881 0.708847 0.929215 0.439012 1.035282 -0.066085 2.153470 -0.678724 -0.042583 1.407592 -0.187811 0.823147 0.407609 -0.087109 0.855451 1.486473 0.891844 -1.083810 -0.480454 -0.662051 -0.564935 -0.665728 0.053479 -1.034039 -1.098714 -0.270668 0.849920 -0.385362 0.221061 0.010189 -1.625057 0.264028 -0.336313 0.950026 0.695031 -0.476514 0.231843 0.321545 0.102566 -0.242197 -1.663212 -0.793787 -1.354427 0.185827 -0.620252 -0.033224 0.795625 -0.324048 -0.290989 0.844957 0.433557 -0.373224 -0.159251 -1.023973 -0.695170 
L -1.082559 -0.937550 -0.146500 -2.408450 -0.088447 -2.499848 0.273912 -1.193086 1.793275 0.365062 -0.269666 0.454857 0.436387 2.428973 -2.985744 1.778105 -1.181121 -0.582102 1.072855 2.166176 0.044388 1.896907 0.680194 -2.178683 3.530660 1.877576 -0.207040 0.624729 -1.223881 0.125061 1.522563 -0.857372 -0.372210 0.707625 1.478638 0.076562 1.275957 -2.332685 -1.597076 -0.115595 -0.724278 -0.578529 -2.237073 -0.714187 -0.168239 0.777716 1.361507 -0.941155 0.522334 2.778026 2.125169 3.943579 2.233066 0.085907 -0.103592 -0.956555 -3.247745 0.656336 -0.597418 -0.102094 -0.904622 -0.899191 0.259567 -2.491703 1.991740 0.536419 -0.534169 3.604898 -1.743873 -1.337052 -2.218582 0.533628 -0.936103 -2.503133 -1.783414 -0.933022 -0.397030 -2.571501 0.906697 -0.852634 2.408457 3.369517 -0.391101 -0.902377 -1.099448 0.002674 1.119276 -0.692668 -0.713305 -0.826854 2.102470 -5.317982 -1.215121 1.925275 0.042043 1.070283 -1.511171 0.402616 1.413201 0.350212 
u -0.310271 0.794816 0.901913 -0.159337 -0.398840 -1.805169 -0.955807 -0.067121 -2.805017 -1.140785 -0.051133 0.997682 -0.033185 0.586298 -1.038093 2.625580 -2.325666 -0.620187 2.029379 1.410707 -1.774387 3.256031 1.205145 -2.112893 -0.211165 -0.439950 0.691327 0.740195 -2.563385 -0.777355 1.384065 -1.596830 -1.053361 -1.118156 -3.048422 -0.296471 -0.874234 -4.163595 -0.494316 -0.558374 0.318991 0.140206 0.610750 -2.252473 1.658979 0.368416 0.698433 2.014471 1.916042 1.946068 0.873759 2.809969 1.523415 -0.838782 0.571760 -0.128693 -1.289517 1.255969 0.590830 -0.713945 2.510169 1.485829 0.852745 1.489493 -0.948393 0.658869 1.832708 -1.481797 -0.923890 -1.478158 0.966670 0.200385 1.962479 -2.296437 0.756900 2.900122 -0.339011 -0.746048 2.287517 0.972868 2.414864 1.881045 -2.670493 -1.619768 0.794544 -0.111538 1.367875 3.159025 -1.042611 2.044302 -1.388780 -2.479087 -1.474956 -0.689364 0.541916 -1.291035 -1.684283 0.375692 3.010673 1.439994 
Ca 0.263467 1.951448 -0.394513 -0.134807 -0.942467 -3.615302 -1.146913 0.920817 -1.619613 0.673677 0.838538 0.338597 -1.389763 2.094612 -1.081606 -0.749908 -2.359973 0.187134 1.483166 3.572706 0.060480 1.583100 -0.384649 -0.128585 1.858779 -0.423392 0.222755 1.368583 -0.345398 0.823759 1.207755 -0.470860 -0.279078 0.586008 -1.630952 1.668679 -0.630052 -0.554010 1.389802 -0.123124 -1.908159 -0.907077 0.968098 -0.075709 1.385077 0.669651 -1.310591 -0.548956 0.926841 0.896731 0.718611 1.434828 0.148566 -0.966244 -0.891569 -0.544859 -2.293120 1.557519 -1.271023 -1.045891 0.133615 -0.513514 0.121471 -1.386036 -0.363908 -0.400943 -0.029809 0.307838 -0.920162 -2.038994 0.162919 0.854375 0.677726 -0.582529 -0.111271 0.266450 -0.903049 -1.314372 1.113454 -0.493459 0.786949 1.119894 -0.529289 0.164678 -1.380065 -0.141140 -0.079556 1.836915 -0.910731 -0.259443 -0.661147 -2.431395 -1.393445 3.500538 0.585788 0.974586 -1.186840 0.633645 0.809490 0.603624 
t -0.573043 -1.562904 0.292294 -0.561954 -0.578816 -0.735781 1.088594 -0.555574 0.695921 1.169913 -0.160257 -0.385447 -0.193147 -0.557912 -1.451003 -0.012898 -0.867509 0.467852 0.531547 0.612277 0.742489 -0.021755 1.322549 0.853615 1.360380 1.583184 1.268251 -0.512789 -0.669545 -0.572079 0.507161 -0.649319 0.222082 1.229617 1.980801 -0.521901 -0.845307 -0.488161 -0.124582 1.104920 -2.037090 0.018187 -1.444565 -0.015615 -0.964301 -2.064092 0.476055 -1.868182 -0.121490 -0.443756 0.873071 0.880166 0.901814 0.297106 0.100767 0.283816 -2.310426 0.081165 -0.184502 0.459731 -0.854987 -0.375606 -0.875871 -1.174546 -0.030089 0.924634 1.057219 1.890881 -0.173661 0.186100 -1.047351 1.467634 -1.081098 -0.562446 -0.855076 -0.193427 0.738534 0.057651 -0.911796 0.125480 0.939744 0.817777 0.569265 0.559449 0.330784 0.946307 0.687901 -0.071433 -0.762571 -0.556056 2.006525 -1.241379 0.021516 0.647232 -0.421349 0.417172 -1.289136 0.247732 -0.542714 -0.087675 
Cr 0.076594 0.940330 -0.000981 -0.121953 -0.876177 -1.989767 0.172534 -0.283074 -0.740821 0.876427 1.249833 -0.692350 -0.107739 1.578847 -1.427729 0.000345 -1.469444 -0.422388 1.761591 1.742679 0.023100 1.058089 0.293098 0.571204 1.493332 -0.901777 -0.282955 0.282300 0.038125 0.202513 0.626455 -0.555604 0.100406 -0.112539 -1.072558 0.526127 0.183557 0.057704 1.406205 -0.438988 -1.256097 0.025622 -0.202759 -0.869750 2.027317 1.582739 -0.143787 0.244723 1.112293 2.306543 0.875773 1.833462 0.114024 -0.455008 -0.748963 -1.425901 -0.882356 0.537463 -1.108854 -1.323310 1.503420 0.142845 -0.554694 -0.569413 -0.087561 -0.564092 1.022146 0.460233 -0.341984 -0.530511 -0.044075 0.508495 0.884374 -0.786814 -0.854595 0.013291 0.096722 -0.198389 1.584681 -0.392156 0.484835 1.542438 -1.558622 -0.102982 -0.202357 -0.534934 -0.300452 1.214282 -1.062669 0.821226 0.455188 -1.984831 -1.478553 1.521129 0.603440 -0.124691 -1.368203 0.544449 0.351992 0.135173 
Mn -0.204127 -0.287192 0.804373 -0.796249 0.227147 -0.817167 -0.523628 0.362025 -0.576919 -0.420706 1.035385 -0.282677 0.812928 2.599238 -1.643394 -0.828308 -1.392895 -0.994845 0.185201 1.088226 -0.117605 1.583861 -0.001140 -0.485663 1.217480 -0.636478 0.665635 0.949706 -0.464499 0.433521 0.340830 -0.375859 0.803606 0.690015 -0.237557 -0.280595 -0.644921 -0.823833 0.741351 0.177391 -1.170438 -0.269291 -0.130280 -0.600759 0.023791 -0.374513 0.294246 0.174015 0.607447 1.252223 0.778365 2.064646 -0.020818 -1.423181 0.197805 -0.804739 -1.390496 0.667084 -0.839241 0.367503 1.323748 -0.359331 -0.336718 -0.091993 0.356012 -0.198092 0.856291 1.528249 -0.483142 -0.980288 -0.265911 1.210035 -0.663292 -0.363701 0.083122 1.186502 -0.201424 -0.648950 1.265626 0.023582 0.599979 2.250063 -0.364470 0.818003 0.576242 0.575211 -0.134553 1.923082 -1.040434 1.246529 0.033554 -1.518456 -0.895120 1.718587 0.270188 -0.233406 -1.044758 0.400168 0.533982 0.536456 
h -0.101040 0.918974 0.546832 -0.053728 -0.486466 -1.591125 0.231044 0.672591 -1.927302 -1.451647 0.478275 0.670975 -0.072895 0.421273 -1.264899 3.268736 -2.350882 -0.119729 0.851624 1.274361 -1.017740 3.097864 0.746450 -2.374233 0.905742 -0.425613 1.453086 0.086379 -1.842891 -0.520253 1.096734 -1.087356 0.159107 -0.579488 -1.977638 0.225089 0.388394 -2.822417 0.130648 -0.960149 -0.526477 0.154394 0.252814 -1.278094 1.010509 0.419769 0.073462 1.016902 2.551632 1.953134 1.580676 2.469606 0.784388 0.061293 1.413530 -0.919368 -1.516463 0.384637 0.631518 -0.308585 1.813810 0.169639 1.069409 1.732423 -0.146281 -0.124318 1.395170 -1.239165 -1.261492 -1.077863 1.138409 1.099127 1.285702 -2.259756 0.635919 1.811682 -0.005758 -0.379067 1.227240 0.534934 1.786580 1.807962 -3.020503 -2.210586 0.553003 -1.102206 0.960647 2.501318 -0.491931 1.669169 -0.755495 -2.087770 -0.485874 -0.460999 1.029078 -0.073234 0.181678 0.089434 2.471582 1.048329 
Li 0.422601 1.095711 -0.436436 0.080657 -0.474296 -1.763794 -0.165813 0.468926 -1.040162 0.909048 0.567701 0.375767 -0.298108 1.224432 -0.607110 0.007540 -1.072495 -0.103436 1.146500 2.115934 -0.329788 0.988133 0.069117 -0.036166 0.972145 -0.803334 -0.076254 0.768356 -0.357727 0.620971 0.622098 -0.418525 -1.035051 0.066150 -1.800832 1.247846 -0.032158 -0.541663 0.269449 -0.179893 -0.536440 -0.345047 0.587650 0.265818 1.031959 0.810688 -0.675438 -0.426482 1.013283 0.386245 0.362890 0.854843 0.552995 -0.542062 -0.113523 -1.048158 -1.563008 0.755998 -0.620297 -0.792954 -0.325957 0.593997 0.280341 -1.550488 -0.231372 -0.262817 0.122504 -0.265544 -0.621048 -0.809471 0.197537 0.577202 0.719696 -0.443416 -0.299647 -0.315597 -0.175849 -0.886174 0.491545 -0.745797 0.646756 1.716882 -0.520708 -0.524357 -0.407362 0.374056 -0.122794 1.208796 -0.659408 -0.060024 -0.473951 -1.474718 -0.741184 1.711486 0.220459 0.457547 -0.916408 -0.082109 0.548825 0.770431 
Mg -0.009358 0.507338 -0.067172 -0.370627 -0.039047 -1.351145 -0.406204 0.371183 -0.376906 0.039348 0.381077 0.124872 -0.153310 0.057056 -0.455137 -0.338192 -1.143695 0.332703 0.196068 1.462206 -0.531043 0.924416 0.013746 0.127397 0.784875 -0.289731 -0.211461 0.546621 -0.168253 0.517974 0.291381 0.167385 -0.337121 -0.182082 -0.319401 0.436042 -0.150127 -0.872086 0.330726 0.208742 -0.448045 -0.305981 0.361808 -0.009929 0.140926 -0.052498 -0.203581 -0.146762 0.111238 0.566453 0.194815 0.409632 0.907903 -0.279357 -0.381001 -0.126309 -1.321904 0.782019 -0.323844 -0.083690 -0.294822 -0.209912 0.302625 -0.996965 -0.246269 -0.326118 0.096745 -0.007659 -0.121217 -0.824498 0.261171 0.333061 0.367973 -0.315708 0.142942 -0.108185 -0.187335 -0.480438 0.540813 -0.458535 0.493500 0.754140 -0.224819 0.364731 -0.209899 0.614165 0.001931 0.642807 0.009204 -0.058011 -0.225687 -0.857584 0.077303 1.796970 0.184002 -0.029604 -0.039246 -0.501488 0.078160 -0.101692 
Tl -0.035728 -0.023471 0.197263 -0.254271 0.279120 -0.085145 -0.201832 0.215558 0.087047 -0.032004 0.533312 0.189480 0.393804 0.218287 -0.249784 -0.180443 -0.276612 -0.067682 -0.248961 0.380242 -0.121509 0.284913 0.174516 -0.128707 0.186916 0.203200 -0.245113 -0.040456 0.103063 0.415270 -0.063839 0.321726 0.063820 -0.007347 0.245795 0.043347 0.151461 -0.156261 -0.051271 0.112144 -0.212283 -0.260127 0.282120 -0.126810 -0.124172 -0.414425 -0.086477 -0.339740 -0.093298 0.075488 0.168825 0.152498 0.332489 -0.156667 -0.031594 -0.229440 -0.743896 0.397486 -0.254417 0.031258 -0.116995 -0.123527 0.184723 0.168752 0.092408 0.066499 0.291468 0.200875 0.128802 -0.214655 0.266383 0.182775 -0.213717 -0.116707 0.159153 -0.005732 0.090819 0.129779 -0.066902 -0.190013 -0.089956 0.375639 0.129286 0.361878 0.189989 0.124121 0.170923 0.254812 -0.229710 0.135872 -0.030323 -0.502140 -0.139481 0.303455 0.048650 -0.102590 -0.071774 0.083171 -0.047337 0.106864 
Ti -0.060851 -0.132322 -0.224683 -0.436353 0.044677 -0.217003 0.046633 0.059434 -0.007097 -0.345468 0.270523 0.326050 -0.033259 0.062386 -0.067945 -0.416704 -0.394581 0.176436 -0.508488 0.306298 -0.130798 0.053098 0.068182 -0.110868 0.060405 0.224664 0.326347 0.126186 0.160334 0.285310 -0.185073 -0.014105 0.163491 -0.297628 0.047500 -0.052652 0.030774 -0.301941 0.026641 0.118702 -0.385238 -0.335642 0.507048 -0.042297 -0.227817 -0.682981 -0.201864 -0.187659 0.006817 0.074013 0.086497 0.210335 0.337762 -0.297752 0.039905 -0.023768 -0.304266 -0.003387 0.183333 0.103470 -0.124709 -0.410695 0.079534 0.029284 0.203905 -0.038044 0.414316 -0.080158 0.159977 -0.345904 0.226873 0.136931 -0.093294 -0.404034 0.134785 -0.010727 0.211644 -0.121219 -0.078997 -0.375191 -0.326679 -0.070511 -0.023959 0.225453 0.085462 -0.051706 0.082521 0.159045 -0.221643 0.223459 -0.155594 -0.222116 0.198253 0.603328 0.126429 0.020709 0.094658 -0.343332 0.200963 0.067221 
W 0.107173 -0.522899 0.084050 -0.447202 0.088980 -0.291354 -0.086872 -0.149620 0.585933 0.111434 0.900156 -0.065527 0.584382 0.210055 -0.535476 -0.252409 -0.565265 0.137613 -1.193802 -0.559500 -0.061961 0.311368 -0.138639 0.145886 0.189394 0.222042 0.708533 -0.053111 0.215643 -0.019696 -0.214997 -0.558939 0.562181 -0.068673 -0.096271 -0.258190 -0.101675 0.080352 0.255710 0.415272 -0.278962 -0.215887 -0.061678 -0.284260 -0.341142 -0.972714 0.140470 -0.151848 0.175780 0.721783 0.100263 0.664139 0.617515 -0.650596 0.169523 -0.262705 -0.443277 -0.134815 -0.062788 0.181779 0.560033 -0.176746 -0.157683 0.595569 0.253825 0.069590 0.508580 0.473211 0.035051 -0.112557 -0.148254 0.427402 -0.363207 -0.471510 0.369121 0.058196 0.470032 0.412324 0.235828 0.161331 0.215572 0.661759 -0.202474 0.977947 0.118069 0.251763 -0.436813 -0.053109 -0.721806 1.119335 0.001754 -0.484224 0.591227 0.384025 -0.017067 -0.724794 0.117165 -0.179014 0.236779 0.015696 
In -0.065456 -0.014260 0.283217 0.052655 -0.289150 -0.354903 -0.053802 0.135667 -0.204983 -0.034068 0.412645 0.412276 -0.098904 0.102246 -0.007823 0.186472 -0.441929 -0.144836 -0.068664 0.200863 0.047755 0.121630 0.049824 0.101160 -0.091699 0.146151 0.009119 0.032370 0.023125 0.382921 0.035787 0.156821 -0.172961 -0.378165 -0.081614 0.291512 0.181252 0.177698 0.150969 -0.015517 -0.245690 -0.121204 0.141085 -0.106257 0.272145 0.127655 -0.389162 -0.516516 -0.057974 0.282976 -0.011362 -0.120095 0.156871 -0.130039 -0.056536 0.041841 -0.316313 0.275868 0.119903 -0.309288 -0.096384 -0.053553 -0.143590 -0.131144 0.156610 -0.247461 0.230039 -0.040801 -0.249141 -0.108156 0.286237 0.340794 0.394100 -0.066308 -0.345667 -0.357178 0.321591 -0.203167 -0.060689 -0.084435 -0.039399 0.032094 0.293476 0.100552 -0.277642 -0.046576 0.033513 -0.066576 -0.008759 -0.216929 -0.402440 -0.026684 0.026107 0.182542 0.041673 0.225691 0.036775 -0.194845 -0.021117 -0.140212 
Zr 0.014321 -1.067087 0.053544 -0.419128 0.597161 0.220562 0.046479 0.328653 0.511286 -0.460417 0.269923 0.097312 0.242683 -0.473230 0.046992 -0.311014 -0.100869 0.191585 -1.116275 0.162338 0.181759 0.095922 -0.365923 -0.085825 -0.019223 0.416063 0.290146 -0.082110 0.019131 0.272791 -0.350530 0.066908 0.313813 -0.406496 0.486596 -0.259655 0.105148 0.051877 -0.114085 0.148114 -0.269232 -0.409791 0.525109 0.185691 -0.539483 -1.142940 0.045919 -0.624672 -0.168519 0.021822 0.220169 0.037534 0.303065 -0.324638 0.300776 0.342276 -0.136985 -0.291792 0.214952 0.372726 -0.339078 -0.554505 0.221211 0.399102 0.199231 0.335196 0.418790 0.308362 0.303781 -0.424918 0.288097 0.110130 -0.495295 -0.374866 0.297364 0.298813 0.372354 -0.097997 -0.023045 -0.196097 -0.523991 -0.362243 0.179697 0.266831 0.317253 0.183834 0.378223 0.026103 -0.104282 0.503751 -0.094122 0.081566 0.487186 0.371109 -0.139059 0.057479 0.417776 -0.351803 0.134710 -0.011718 
b -0.510117 0.269570 -0.088977 0.128794 -0.712613 -0.682011 -0.146232 0.266132 0.184581 -0.399921 -0.172600 0.314487 0.194308 0.040821 -0.292459 0.347724 -0.262731 -0.207182 0.244649 0.226290 -0.387475 0.100706 0.213150 -0.206852 -0.059276 -0.391464 0.010702 0.085460 -0.177569 0.211415 -0.214295 -0.019219 -0.116663 0.031896 -0.209514 0.081153 0.126410 -0.484996 0.374962 0.137851 -0.028979 0.147186 -0.135611 0.129393 0.320041 0.193619 -0.189358 0.535087 0.506822 -0.041929 0.316231 0.409564 0.672000 -0.004842 0.159908 -0.473165 -0.480907 0.142906 -0.251956 -0.163088 0.078068 0.316686 0.150100 0.423260 0.002543 0.123289 -0.049415 -0.178981 0.339954 -0.088407 0.355687 0.047309 0.084190 -0.208864 0.495487 0.175360 0.164077 -0.116934 0.556056 -0.127452 0.356600 0.453044 0.120553 0.430745 -0.090306 0.265710 -0.013052 0.073518 0.118199 0.117240 0.072704 -0.507447 -0.439246 0.246321 -0.039152 0.177458 0.067086 -0.212786 0.497435 0.284358 
